0,1,2,3,4,5,6,7,8,9,10,11,12,13,14,15,16,17,18,19,20,21,22,23,24,25,26,27
-0.872506759,0.533822475,-0.952497389,0.528070205,0.621244597,0.808727919,-1.496719455,-1.402781469,0.15367685,-0.529431318,0.086760136,-1.241297141,-0.703676653,0.036397853,-1.10899465,-0.421889546,0.877740692,0.747687803,0.872830685,-0.136958898,0.327463517,0.176733956,0.167420033,-0.224089563,1.975604073,-0.325362173,1.078444893,2.144786045
-0.6231842,-2.199313697,0.103940548,-1.270667577,-1.139961258,-1.968477438,-1.099090271,0.582283247,-1.882842724,0.003777662,0.507999355,0.581113646,-0.38233639,1.213632961,-0.669602996,-0.42672713,0.52598379,0.49650494,0.911963528,2.35388691,-1.353612579,1.450626719,-1.197557848,-1.884561543,1.070803345,0.182698506,-2.65516262,-0.05292598
0.45961315,1.840989752,-0.015461016,0.375822131,-1.751059441,1.734448119,0.249051702,0.75598583,-1.102141843,-0.03576041,-0.323101834,0.885776135,2.589557284,1.225981634,1.053791461,0.652967834,0.236630891,0.546962861,0.714442653,-0.008315608,0.01430841,0.224066805,0.930731883,1.232835673,-0.954062929,-1.074704244,0.147919629,0.625416322
1.369735726,0.356297317,-2.264415743,-0.582781215,-1.106192821,-1.276851661,-0.678084613,-0.058132411,-0.670461396,0.580672595,1.468023768,-0.403625221,1.553426193,1.17274439,-0.04372435,-1.12285725,-2.374001965,-0.470716331,-0.275160275,0.030568322,0.15762314,-0.150298751,0.763605351,-1.340346874,1.003964542,0.530995767,-0.296622399,-0.532745748
-1.052721317,0.607444703,-0.710013915,0.493227127,0.493941476,-0.171540547,1.028626709,1.243696244,-1.093416185,0.678747455,0.877354665,-0.792682817,-0.624019454,1.781137485,1.047545151,0.233261516,-0.328667956,-0.78492535,0.089270972,0.217289595,-0.806503097,1.572228654,-0.047019119,0.372086713,0.353854694,-1.199338842,-0.137754597,1.683291176
0.026288914,-0.046499538,-0.058400571,-0.02705571,1.298433584,0.78802349,-0.04550105,-0.796420269,-0.874469638,-0.25845195,-0.127496057,0.266749961,0.969361938,-0.022385269,-0.747193059,0.450849653,-0.306147653,0.99808178,1.091134012,-0.62098241,0.718187659,-0.438387205,-1.138368801,0.698110816,0.672847426,-0.64370011,1.568132184,-0.282906665
1.217582208,0.701646052,0.984344371,0.417952906,0.997510316,0.93037996,-0.032779606,-0.057098755,-1.502863231,-0.462234313,-1.881454385,-1.574046686,-0.042695841,-0.222828295,-0.861582255,0.082557494,-0.937486692,-1.363385605,0.464487622,-0.12335076,0.244789784,0.415768608,0.006988558,0.083633154,-1.677164738,-0.415983715,0.504650965,-0.390999042
0.770828837,-0.191130835,-0.411295259,-1.564031807,2.120834402,-0.412837586,-0.827037747,-2.342195406,0.740889146,0.219771355,-0.614160621,-0.880610113,0.194107456,-0.889302057,0.406644404,0.102067835,-1.560032976,2.166321235,0.753079336,-0.166483848,0.271884903,0.396007019,0.028735512,-1.093301564,1.34255906,0.969571241,-0.710070445,1.02152629
0.762534693,-1.796988373,0.603597059,0.432494754,1.022299644,1.268138674,-0.185702787,-0.565248869,-0.355546478,-1.319319112,-0.362249723,-0.358885755,1.306254726,-1.343381118,0.541254442,-0.829464668,-0.119145301,-1.445763102,0.571740819,-0.596820071,-1.48535394,1.125773955,-0.254076083,0.301790541,-0.339705902,-1.366691646,0.067366553,1.745430026
-1.98857708,-0.756371324,1.548418594,-0.549890979,0.216728751,-0.464466982,0.532356955,0.402411911,-0.133526741,1.705870641,-0.207732881,-1.424585925,-0.831070498,1.567107783,0.50984655,2.105830396,0.618344805,-0.137549274,0.113245997,-0.050118009,0.025666085,0.830249628,0.286597224,0.681108876,-1.337815691,0.631403534,-0.783142537,-0.099453502
0.014267795,-0.346278671,-1.681624248,-0.625729413,0.729213385,1.1657451,-0.920419821,-0.546751535,1.298064596,-0.931693194,-1.372219246,1.135144903,0.141634213,0.340375889,0.00109892,-2.087903417,0.793181204,0.298699102,2.184739742,-0.462534055,-0.847572032,-1.747503833,1.005910615,-0.568628631,1.899996865,0.619410846,-0.731895667,-0.779022205
0.362147487,-0.281615711,0.755541837,-0.082117213,-0.236632745,-0.095223962,-1.403458596,1.450631385,-0.407529374,-1.026389332,0.962750628,-1.373066641,-0.225684407,0.396947435,0.138333127,-0.985222874,0.587827887,1.024203471,0.753231023,-1.443396364,1.544743335,1.651003318,-0.519546729,0.52880625,-1.03046049,-0.073697684,0.947462728,-0.976429393
1.4618945763886801,-0.21131649807926228,-1.131459313,1.4851693436199513,-0.06411941,-0.02825728485438211,-1.032116207,-1.108544643,0.361381371,0.9446159396153154,2.0989345760094715,0.190618592,0.715437502,-0.569101288,1.572507813,-1.045140326799741,0.3030506274734446,-0.669832478,-1.8231420943099745,0.8221144548063295,-0.846162965,0.952704318,-0.0007095329117006737,0.05220515848850875,-0.45624001,0.780393042,-0.732857069,-0.163795865
1.4392111597954889,0.49903397850498304,-0.69401092,1.864481368790948,-0.443140483,1.072232253710596,-3.073625375,-0.168640029,1.076663729,1.2750915342908133,-0.32515317489305384,-0.975099358,1.223003898,-0.785891064,1.830112906,0.5144642393255912,0.07797364265708706,-0.888976052,-0.4153073397477033,-0.15301747730751986,-1.119841102,0.224400685,0.23761389090726545,1.5200747813013493,0.500505738,1.627343716,0.295639007,0.348840808
0.926437475795489,-0.6557724804652024,1.347264011,-2.856623099209052,-0.666163823,-0.11201897584422152,0.356007106,-0.16071374,-0.168825167,0.8460219172908132,-0.583907028,0.780424985,1.898484332,0.380361643,0.948344799,-1.368181786674409,-0.1488992526364847,-1.045984378,-1.913758467,0.37327199413431894,0.843646219,0.96283133,0.6818088969072654,0.6149315361457216,1.420413176,0.087043433,-0.042042596,-0.176417518
-0.599194039550188,0.5004253561889499,-2.229210934,-1.4783428753420438,1.265108449,-0.2446645067851759,-0.460984747,0.086152322,-0.380064822,1.394144253553784,-0.750281234,0.106613929,1.304423625,-1.104991572,-0.294627673,0.9665306141802329,0.7158095116818132,-0.265852075,0.816859766,-0.9878810980777367,-0.022266543,0.076350526,0.2431357370794694,-0.0766043437022616,1.660310975,1.417207303,-0.562521673,-0.849280434
0.781829275,0.73180429,-0.344946785,-0.245666851,1.231353561,-1.388066796,-0.872304396,1.092845597,-0.217085231,0.330914217,-0.311777493,1.23445879,0.560566372,-0.137358152,1.855228157,0.172733644,-0.365267852,0.873662742,1.312165249,-0.874881982,-0.989315846,0.674011665,-0.060020593,0.590750131,-0.958841857,0.16602622,0.444382614,-1.305814696
1.909455643,-0.338006753,-0.607361786,-0.088958757,1.694518277,-1.605336808,-0.050046995,-1.497573044,-0.570697861,-0.019829457,-1.836045189,-0.725760306,-0.051079269,1.496276848,-1.366560649,-0.23988949,-1.360994491,-1.107826025,-0.32052714,0.323122398,2.507813934,0.741319724,0.209270637,1.058968413,-1.19373973,0.665360957,-0.813275431,2.226540431
-0.105950562,0.424737842,-0.12019702,1.047805918,-0.679405546,0.876991988,-0.044596453,1.122529754,1.008815186,-0.831517194,-0.436167637,1.197859142,-0.315118763,1.75776312,1.027683283,-0.794654162,-1.697413049,0.589374978,1.481254323,-0.173736894,-0.435408975,1.447150178,-1.624765248,0.785728315,0.620040072,-0.253540577,-0.37603962,-0.658391245
0.268629188,-0.448694249,0.43507993,0.82227526,1.228843702,0.783132633,-1.204767912,-0.988226424,-0.484873935,-2.018114449,0.209487044,2.01116098,1.931460217,0.319924383,-0.198960872,1.165480295,0.227804361,-0.733947252,1.00885413,-0.994449271,0.310579561,-0.647927314,0.357788354,-0.472756553,-0.211015223,-1.153319444,-0.412961551,1.319725518
1.591740296,-0.555781833,-0.413693521,-1.625115005,0.091364851,-0.193984868,-0.507306817,0.319229799,0.210986245,1.175120328,-0.612052501,-0.088618642,0.974374406,2.137034495,1.088700725,-1.484750133,-0.04219976,-0.41583186,0.140266789,-1.575172195,0.405655481,1.400924089,0.499198834,0.379822636,-0.623414375,-0.630937089,-2.314586594,-0.351318159
0.366617928,-0.169927895,-0.409954012,-0.400086464,1.766142753,0.172428909,-2.295289405,0.736076139,0.602182671,-1.573007702,0.248074899,-0.481222542,-1.404835641,1.020909875,0.053147252,0.785682134,0.966962988,0.044251922,1.696140795,0.769577493,-0.413853778,0.606601576,-0.71229722,-1.040794971,0.296467291,-0.557102839,-0.050759858,0.458344942
1.188350724,-2.295137747,0.405355028,0.528996875,-0.407687868,1.729934457,-0.489851028,1.364557071,-0.733520012,0.156482165,1.797277025,0.056089945,-2.149978832,-2.535983116,-1.952826121,1.264574356,-0.33714138,-0.051695721,-0.869745872,1.132272653,0.108383393,-0.952694394,0.059904833,0.881190084,-0.573561852,0.844381085,-1.527259131,0.145409917
-0.337360979,1.10194493,0.674431026,-0.264432237,1.293004518,-1.975622334,1.453575302,-1.026236392,-0.386686189,-1.00431921,-2.12575834,-0.394055227,1.231888985,-2.77083394,1.220162838,0.706208173,-0.844379696,-0.357874047,-1.512491291,-0.900902902,0.58596425,0.579350865,0.48361249,0.891804375,-1.985441502,-0.567514054,3.055936553,0.214150418
0.691727839,-1.749164806,-1.213525564,-0.088869283,-0.236512054,1.048584095,0.495251443,0.706194438,-0.43372513,0.622691649,2.665167325,0.562027535,0.366660894,-0.916709431,1.309774213,0.495904917,-1.637085884,-1.106787543,1.242916226,0.16635482,-0.058572087,0.343126804,1.047850388,-1.638307262,0.432059509,0.135489907,-0.793930118,1.229840205
-0.145523726,0.102978828,0.001574869,1.189293835,-0.659323739,-1.434376756,0.311622321,-0.615191536,-1.030123609,-1.632611244,0.456838563,0.863739875,-0.527749474,0.926050042,0.054971169,0.85691606,0.048161668,1.513514692,-1.577653015,0.199848069,1.886242669,-1.222037808,-1.210257078,-1.334195918,-0.437425105,1.032396991,-0.304598358,-0.164366624
-0.299270156,-2.080383341,0.141926714,0.277759921,-1.424468521,-0.708599525,1.401267696,0.682574222,0.693288272,-0.406478586,-1.653175527,0.036615808,-0.824154993,0.693075299,-0.364322887,1.645602571,1.502206959,-0.777570354,2.104892637,0.708356823,-0.046836401,0.7385743,-0.372007097,1.84254521,-0.952878709,-0.841964257,-0.539318404,-2.187625217
2.269205493,0.709330308,-0.159117029,-1.919987618,1.111721041,-0.340999192,-0.974614674,-0.759322735,-2.083683394,-1.472015356,-2.652725646,0.925065809,-0.906309561,-0.577869297,-0.331418341,-0.043217234,-0.420057046,1.085693999,0.631752484,-0.619455355,0.539576178,-0.695285696,0.553084854,-1.071778159,0.469064884,1.727393236,-0.753386919,-0.078641594
-0.268562981,0.629392987,0.078435581,-0.252374957,-0.103098817,-0.201998399,-1.347531331,-0.554088125,0.0020788,0.491265584,0.117661259,2.266544075,-0.283391092,-0.437696065,0.194464653,-0.225151209,-0.857376881,0.172234682,0.522450959,-0.051744064,-1.115302095,0.406594914,0.325343181,1.157225309,0.404495933,1.071992489,0.007788755,1.178712705
-0.379112202,-0.005455808,0.077946251,-1.313218236,0.049185437,0.473510316,1.822152269,0.594152535,-1.321557221,-0.396847719,0.618086565,-0.740617346,-1.070728276,-1.106436666,1.007952011,-0.807711862,-2.564055908,-0.595446363,-1.755766687,0.513585951,-0.52282003,-1.061311972,-0.399070595,1.110254134,-0.276912537,1.782767725,-0.211823158,0.306635706
1.333033237,-1.478716613,2.796783252,0.750322377,0.201259955,-0.138710646,-0.090201892,0.869975333,2.12581638,0.222259645,-0.69681402,1.0177698,0.775015443,1.270609309,0.310644691,0.526721393,-1.069120141,0.051730828,0.104793571,0.946605187,0.204070303,-0.686593695,0.374450018,0.854217942,0.273321382,-0.417795342,0.933759072,-0.514914177
0.955983442,0.704116717,-0.7887509,0.326854661,1.919631029,-1.213447391,0.432304066,-0.067034104,0.552155903,-0.295374935,1.488623422,1.061506569,1.2123593,-0.10045853,-1.198230975,-0.135082054,0.796141953,0.646724864,-0.154828426,-0.70310803,-0.71472412,0.216379465,1.957686783,-1.949255088,-0.927186032,-1.255764163,0.174433825,-1.02391802
0.772056072,0.313526373,-0.726069679,2.649894912,-1.096401341,-0.292452961,-0.91995076,-1.804539134,0.959703534,-1.313858876,1.126867607,-0.953125501,-0.170559681,1.464442003,-0.131674883,0.017059582,-1.988155854,-1.069658058,-1.025811333,-0.514412966,-1.453559086,-0.932880651,0.177829964,-0.120406891,-0.809828202,0.143583572,-0.522303279,-1.686321943
-1.550709697,0.22748870350110897,-1.504121462,1.094657645,1.588165953,2.696733493530849,-0.104100898,-1.890637974,-0.225987126,0.929537645,1.0966013950358293,-0.821800207,0.181806428,0.745313495,0.640961747,0.920207776,-0.6702382825451557,0.254713242,-0.472460383803612,-0.16096370633722712,0.564545686,0.47498151,1.201881819986014,-0.3334445380446207,-2.017980661,0.609204896,0.136784853,-1.711720549
-0.7524542744852757,-0.9038475360962559,-2.64139843,0.090616783,-0.560046927,1.1568331373731648,-0.008630485,-0.977980138,1.97229277,0.238472943,0.32214515910902036,-0.600324689,1.2257369871059343,0.623192096,-0.399153013,0.661790754,-0.2364892424164218,1.296358184,0.16405256495218246,0.25656977537352577,0.3251407204614761,0.790394073,0.7310149022727113,0.45535212735520864,1.721333447,1.490803583,-1.742279524,-0.940752669
-0.2243448380109407,0.41876320579841614,0.85312323,0.237691518,3.044756845,0.3823754342593462,-0.18900136408312776,1.381292489,-0.930828899,0.2807206802684779,-2.834354832673298,0.103336677,0.0995347633971111,0.66298898,-0.702235422,-0.934142422,0.09026785038427228,-1.0833301646197662,0.2330828567710819,0.26098704574506376,-0.6675426148401702,1.044974693,0.33229149525064694,-0.7745959800631343,-0.800662475,-1.002612575,-1.056393633,0.016018744
0.6382368345978355,-0.9008639349842792,-1.228538628,1.820604876,1.46675401,1.2191475934541338,-1.1960672200455504,-1.508898569,0.603224396,0.6781036848484076,0.09591701735861073,0.875320384,-1.7899271159598686,0.533824266,-0.453904541,1.2398363303747741,0.7264907900596663,0.22709716783804312,0.31483511911041917,0.7962899676828357,-1.825054502,0.071492184,-0.07185196104978427,-1.264371139714292,0.18137944,2.407452955583818,-0.517943764,-1.173837231
0.5716823522438228,-2.13288205890793,-0.389612147,-1.745685147,-0.451609086,-1.2062473900563337,1.1013860995558982,0.940861228,1.089752434,0.05744081265781861,-1.9781277592836564,-0.719789699,-1.8428836815139904,-0.97671461,1.415086366782,0.9460873822293628,-1.8842613529759962,0.7262569716554717,-1.2771187913346804,-1.118630067508955,-0.917006266,0.659233145,0.1536610656278458,-1.5741961438042473,1.295091311,0.5358423126643485,0.424324905,0.968707441
-0.5854988353026216,-0.9643566987207745,0.449428719,-0.3090094157635056,1.377339121,-0.3572985023935212,0.005792232944732556,-1.810810918,-0.610719237,0.5591736135124331,-1.0548759269473518,-0.48583694,-0.23856277567057188,-2.613741006,0.7377971691092565,-0.28200087590203143,-0.3930014394216301,0.151446769637619,-2.033081692581819,-1.3971638264877126,-0.395229397,-1.187866151,0.974940142579194,0.20000808416189284,0.289825287,0.9988462775808764,-0.195833353,-2.156900916
-0.16394865296691646,0.7977095370954261,-1.934456565,-0.6825530120076172,0.678297349,-1.670252903002893,-0.4686813992933915,-0.8005728173050901,-1.2989706915548596,-1.0891916736474374,0.9453780206880401,-1.036012857,0.3437540790097548,0.664043863,0.5819502869727019,1.5236980991727394,-1.4652792510016424,-0.373841999,1.3506781607404723,0.22261424668556795,0.1125791001699401,1.011708903,0.8080677944037016,-0.45679662503617907,0.568749408,0.4156316385123307,-1.339546865,-0.537938909
0.6269323800819293,-0.36936612964844456,-2.323825013952927,-0.11741211519002434,-0.373827436,-0.7063946766873269,-0.5123180729418929,-1.7891735086212952,0.9999030031922149,-2.6425097436310416,-0.1612107801706787,0.383752824,-2.0716018655898005,-0.672540573,-0.9120529225525402,-0.6130683894316619,0.8328564049813257,-1.028941198,-0.29176042269134833,0.5231202048719602,0.45442290826495,-0.812700835,-1.116279050659408,-0.899167515893267,0.172834144,0.14787990599184017,0.84235951793942,-0.700363778
0.6741058868784139,0.41439893213122037,0.5056316433839683,1.7263019139608853,0.563101993,-0.9505836131094745,-0.9135035438576226,-0.34830034812322364,1.0029064827140968,0.6180339270712172,0.3799196215298581,-0.323560058,-0.306794435,1.320442511,0.7019871020789771,-0.05992620545626441,-0.4461495254314417,1.456229275,0.4020465608640641,-1.277107232420547,0.8655446131188133,0.756597182,0.6595163025834504,1.8764365524884499,-0.07631347,-0.4676296731231843,-0.8881646906053706,0.250803417
0.7469683347147358,-0.7226526578696917,1.2185908934588006,0.18730666437264057,0.810858284,0.7215072565256772,0.990981133942867,0.6025359262475629,0.729838715269716,0.940808413876203,-2.007695028470559,0.8280214597642472,-0.11014945623398407,1.686859708,0.8721858589021684,1.8894397614572187,0.9752647767106812,0.39737625169140545,0.11385226234419178,1.0440921642849075,-2.2892905422368846,0.7399713286847845,0.06518010727942093,0.7154829421343596,-0.164937025,0.6084137700886796,1.9643467311544571,0.162740738
0.6546213542091166,-0.4874212187264421,1.1367649705965963,0.3272061236684101,1.141039751,0.21911375997112367,-1.6823055824396826,-0.7088655079965488,0.44974184158887015,0.568513622347392,1.1944483861265294,-0.03665800791574861,-1.079457209614261,-0.102701941,-1.714541235372033,-0.5076745347711408,1.2270465466092064,-0.2723195628755362,0.89737281660248,0.5520544674598957,1.9420586021527886,0.2796686420107166,-0.14697519046274451,1.5175451875907378,1.399903877,-0.6796513525467232,0.3221841971404864,0.554150006
0.05056658298987859,-0.7963605328249931,0.07617546844337668,-0.29939143114459826,-1.362951345,0.43124931216882045,1.3840205562797137,0.08746058363714224,-0.06819859667024981,-0.18038222509366794,0.388674552478829,-0.8994623026654842,1.5450541249435703,-2.683196202,-1.7636952188186634,0.8512750206067748,0.26966399371110317,0.9547960742810341,0.753843294304698,-1.4886367763479458,0.0740051124365025,-0.5461113936189437,-0.09754236063244288,-0.12450664934357929,-0.588854829,-0.22050372224156578,0.10535238281120583,-0.368390625
1.559989821923459,-0.16249045447965904,0.1994377469872287,-0.09630111639505658,0.280400713,-1.4033200777566888,1.4793041173706913,-0.35822786718267413,-0.6318234858460414,0.1902379480767788,-0.8939594593381259,1.8813307157760808,-0.896628164197208,1.858538431,0.10652229333564266,-0.2969896781409179,-0.6328550637710149,0.3420273884599507,0.09651955151220425,0.23718124842070998,0.9906077268618991,0.267887485,-0.0845591338836662,2.131853959065068,-0.013979457,0.766748585589324,0.18979459074587182,0.383621477
2.0393987900620814,-0.4582244268395074,-0.33990373152399395,0.6692048814059355,1.564256193,1.4603671504705769,-0.26593360336241734,0.8371062413628259,2.3975767395090304,1.208277974227933,0.3560556033041001,1.4252693218441312,-0.687941679,-0.99444443,-0.9993943620806776,2.155609388,-0.23851563281651936,-2.161642453230902,1.0764152952594181,-0.9222395311776208,1.1742059921016847,-0.249649223,-0.116151224262216,0.19663091884433995,-0.559663401,-0.6154552667042794,0.07224704941607192,-0.07982103
-0.407843448913807,-1.0096619897395966,-1.259566469864694,0.157848262,-2.060509816,1.5683928607199684,-0.4200526328220481,0.00638893169363216,-0.472086186030377,0.3021144260123629,0.7795911152315956,0.46011691016981593,-0.622013929,-0.457840562,0.9766465496468757,1.070771503,0.731477287509462,0.625864241960865,0.2707951986879004,-0.05364159987967724,-1.5646339078150464,0.391537493,1.4624694416035364,-0.30492749250348167,0.672345954,0.14608205581485018,-1.486523002,0.78353526
-1.471387796,9.347117445044657e-06,-0.45125715052860577,0.784567058,-0.174993553,0.15852413032303506,-0.07362720853012006,2.0590600815084894,-0.1634958607946687,0.772182396766514,-1.7215200927523375,2.1655560654587673,-0.366494154,-0.841430077,-0.02745436818145782,0.021115924,-0.3729626536710798,-0.8036616051863716,0.9152168003113168,-0.1883786165886177,0.043843631386582864,0.367421217,0.3826226740093793,0.06602308413509829,1.381953683,-1.4506797016302129,0.404632345,0.40224238
-0.195388439,-0.06026353262581868,0.11306514624431567,0.909551454,0.779955701,1.5345124406271367,-0.23656644039999838,0.4051966041095213,0.19378374001133572,1.3364210653039306,0.5435264134464449,1.0415739156561736,0.162050351,-0.892008814,-0.134772261,-2.167038044,0.805783156806143,0.2374272557480941,-0.6664019496748906,2.313953674440086,1.85290895,2.331737847,2.047288556,-0.9119250522325903,1.451297781,1.445779897644002,0.39860787,0.433668022
1.834122191,-0.10760963620623233,-1.1441445683161175,-0.616730857,1.201573099,-1.0467961655525473,1.935591579,-0.248738937,-0.016576178,-1.0071591274324976,0.0962449549845011,0.25155888373149654,1.396926927,0.571389091,0.534548335,-0.385951908,1.4395125591619158,0.546804277,-0.6540176465109314,1.3708707348356253,0.46693626,-0.607020261,-0.783765526,0.7621183330664106,1.117711844,1.4311694366145462,-0.542536898,-0.925558321
-0.71349665,1.556025672211932,1.4510609,-0.660825857,0.244839256,-0.7418162783139101,-2.325067326,0.607045491,0.118342071,2.12452763,0.326843051,1.896710088,1.420935372,-0.766390068,-0.843164339,0.600790435,0.39512486381786716,1.700769324,-0.7739706237269528,-1.037312093565662,0.026948826,1.321051508,-1.838216733,-0.7400236552263624,1.313662972,-0.226368073,-0.580582606,0.728049137
-0.694638107,-0.310955053,-0.633151297,-1.03259519,1.921446528,0.634296798,-0.777535874,1.193195995,-0.54628198,0.958191185,0.661110126,-3.552589789,1.690965658,0.644452877,0.342447407,-1.327048824,0.394654927,0.740984895,0.3594197,2.67215919,1.264896431,0.104622284,0.258512951,-1.41273692,-1.324241109,-0.235177329,0.732723207,-0.309373421
-0.06219314,-0.86971516,-0.559607809,0.245718068,1.488153247,0.649997178,0.912698012,-1.827605499,-1.226509631,-0.390636772,-0.548243499,-0.505689968,1.23141599,-1.36492022,2.368888255,0.537393953,0.525924357,1.055459531,-1.121546462,-0.358071883,0.956993655,-0.306443205,-0.160804439,-1.466982763,1.328850371,-0.052563972,1.029603269,-0.800087432
-2.008615401,0.679822424,-0.193215039,0.868305133,0.141563109,-0.410094647,1.945274245,-0.554442672,-1.871287934,-1.491969096,-0.062280812,0.964223361,-0.43715167,-0.676609216,0.749439372,-0.691695056,-0.334026219,-0.728776038,-0.211174975,0.950917638,-0.419888884,-0.304049785,-0.48931733,-1.284923927,-0.945815517,0.392072424,-0.826370708,-0.232542365
-0.308671623,-0.016385077,0.631977035,-1.545516807,0.125480777,-1.723670046,0.182817978,0.025572775,0.859121901,0.368832264,1.288679678,-0.564149746,1.371972945,1.26886921,-0.984030484,-1.227875163,0.062074254,-0.885431616,0.693368543,-1.053269476,-0.339047321,-0.407989525,1.742607347,-0.190322438,0.86287863,-0.895315668,0.634534718,1.088543135
1.809499502,-0.063508253,0.07451813,0.679940864,0.109171081,1.301865642,0.643620829,0.62934116,0.46293268,0.286394468,-1.033097281,-0.854276445,0.486937721,0.120364055,1.323931025,0.093282301,0.91426598,0.16912831,-0.450944541,1.032594818,1.99323058,-0.345276762,-1.173264249,-0.158986625,0.060875755,0.692057782,-0.003353002,0.908139267
0.291571594,-0.750881524,-0.625313802,-0.090440722,-0.625132771,-0.172548127,-1.648029605,0.132579599,0.644599848,0.251590145,-0.680228176,-0.52759343,-1.127807794,-0.135819356,1.21698434,0.467561647,-0.715629122,-1.249959379,0.070694206,-0.248506343,-0.740822861,-1.440430407,-0.297099981,-0.295035588,-0.144833004,-0.638700705,0.431359344,0.948119821
-0.3275285140743807,-0.5067647480243319,0.086576759,0.370808359,0.571564014,0.837441632486159,-1.766251233,-1.62745033,-1.115441321,-0.209305116,0.9043737590366716,0.157104965,0.772619124,0.010495807,-1.426218286,-0.942563879,-1.0939289689214247,0.170311342,0.546355535308927,-0.6642024032228563,-1.177200659,0.806904803,-0.717209704,-0.188525996,0.224244001,-1.2381244629905053,-0.540249193,1.017015806
0.459894349,1.049868621,-1.632868019,-1.573803165,0.412408733,-0.654901878,0.05927858,0.380381753,-1.296892761,1.661638389,-1.848214347,-1.37925792,0.037775317,0.883863359,0.010875128,0.935275711,0.115979438,0.047503111,0.998411126,0.735916626,0.420567908,-0.85622223,-0.112934062,0.70673133,-0.480717895,1.109098347,0.29701132,1.585093066
0.371812519078911,1.907920124863737,0.8475440622687895,0.894349447,-0.08640047,-2.139370331966751,-0.675367831,-0.8932460877328721,0.04043847294921624,1.455137275,0.17416323306382156,0.824199789,0.493682093,-0.784774792,-0.1093649732976566,-0.38857776570919206,-0.17593841433759938,0.2455764871067388,-1.8257622456087548,-2.1545610851418298,0.335498934,0.292916099,0.8946247638798497,0.291868119,0.707334363,0.9358287159969316,1.906338714,0.524837894
-0.4014156779605358,0.3012870623782199,0.969317318089295,0.871797472,1.338794874,0.250939126990686,-0.9572038286171399,0.13591344608949457,1.2794663947907405,0.340514821,1.3521493473601636,-0.405670493,-1.0206786405128905,1.637660694,-1.6045925669125045,0.047363040425219334,-0.14048412589880893,-0.7513965578969419,2.8175076240991093,0.7867821475160771,1.457453258,0.234390071,0.5044129504874828,-0.6180850939022541,0.950741231,-0.20261599542946723,-0.024043443,0.062207463
1.117273991158958,0.6478547708477322,-0.7407614089328173,0.574255984,1.287034943,-0.9040936393349577,-0.6266983236793026,0.7105542447727825,-1.353351234,-0.06621949665804781,1.328786130566612,-0.724553846,-1.544903568482437,0.035254842,-0.41905460956407636,0.36685093221878023,0.047703403809197305,1.0767158464624382,0.8216523090192352,0.3991449235000177,0.3088063317576436,-0.158324037,1.206942224637759,-0.9132655463010148,1.076138671,-2.4213812828861743,-0.5391444986367888,-0.573683701
1.3379882814997504,0.5664890315701708,-0.9170402294594856,-0.225974405,-0.193944677,-1.2605632353895744,0.3221183560689457,-0.5780974503935027,0.1477141332082393,-0.7329538395103767,1.0799462688995716,-0.20955227224151532,0.3061915290043326,-0.658942366,-1.6509143429943791,-0.9952187818794976,-0.6251864831747831,-0.21096224553918055,-1.2476031983421088,1.671092180223272,0.7315086146777873,-1.638043776,-1.6301324400452264,1.334528878312348,-0.294643756,-1.0935629124339645,-0.42079696875840533,0.414870139
0.41021754015388456,1.2067428692865239,0.962017319465228,0.127272561,0.001162773,1.0222816397224277,1.1500202998220599,0.5826431063463015,0.06423979122595504,1.1583158072632553,-1.0483005583269525,0.5269376958613098,1.9774199395755951,1.166939683,-2.3235647093888154,-1.6060617525084067,0.025325787118279316,1.6576313090457686,-1.5253474344370956,-0.11674201643336177,-1.4025624104646186,-0.01142420760746519,-0.02707236399838161,-0.7786692295568732,0.13081359,0.08855063137993129,0.4305408429447473,-0.4269647649999513
0.4460160226913607,-0.08561925748138005,-0.32582304034300547,-0.3005322400676823,-0.0486784,0.32491884250602965,0.44731180632949635,-0.049152600284625855,0.2701257516054932,1.4402967002439313,-0.5849468558016375,0.19495575362725448,0.38777299184026254,-0.725820698,-1.4620588005565465,1.9151619705030907,0.37461480057851865,0.7361069488361036,-0.650274827033168,0.22231455487282992,0.41874400904103587,0.4198096256271506,-0.14827065472182427,0.4444898151868465,2.533455255,0.520562738263075,-0.9655074512282582,0.4767720848264075
0.8936920593277905,0.612923045584194,-1.809730402553369,0.8099869417763051,-1.06230615,0.13688911764154302,2.2893182608933693,0.009076656947641823,1.7962843111324787,0.20320845292069803,-0.035683922077045946,1.6898296171140657,0.07281487255304454,0.534539581,0.4420589664051193,-0.1000076408887015,0.3805578668879126,0.8788613986579881,1.0810899931541047,-0.5946935030464222,-2.22458845604333,-0.09846812315581546,1.854164765985285,0.8114216218783694,-0.352001898,0.7018230677315951,-0.32621873478907476,0.19066549199429542
1.3077328873259673,0.0275872962141724,0.4262663593406782,0.3908205799587977,1.109264836228001,-0.460319383523438,1.0274438016703735,0.6584420046076885,-0.9875231034072832,0.5153026321726087,-0.7051398884331147,-0.25997149542181497,-0.2719652055192911,0.505873103,-0.7437775086611655,1.1797659612088758,0.06264917689309243,0.8513380675862553,2.11581405346754,1.3843210908416341,-0.44722331255551045,1.5853934056860883,0.9664448819874628,-0.4357440434719012,0.595910834,1.4387048148682904,-0.6899970265011847,1.2234300141887176
-1.3362467674804268,1.2903222212509071,0.7113213663658944,-2.096661551909223,1.0895595153165771,-0.13977011145974824,0.8949744973913282,-0.06055011170924721,-0.6510747914979845,-0.5577185325734202,-1.1259266297994137,0.9145216549986634,-1.4170095834284033,-0.7673491783249196,0.959287943952036,-0.21797642710051895,1.0822148713323536,-1.8413028818743842,0.9779703172554697,1.4996287708310128,0.013822504846538793,0.267688803508876,1.1361815368029822,0.35219453442311754,0.780979702,-0.7936529908097808,1.0315916512806471,-0.7893841519938367
0.20854792783401194,-0.242273133010016,1.3342761358365796,0.602076108393123,-0.5693166963713623,0.7687831921806338,1.083846453260882,1.4396989452102031,0.12486347485503525,1.4908140431771928,-0.7617070298460706,-0.7070751196580424,-2.068884903613311,1.7115620561885383,-0.13994051024671594,-0.04484406668071934,0.6689184373623351,-1.8101148154918894,-0.06436014493936894,1.2512871193394706,0.8883201243100511,-0.25449562552953775,0.1756412255696497,1.18764302607628,-0.60440087,0.484164393311937,-0.6989556560577078,-0.38357286799383666
1.2629115249069587,0.17407762655306153,-0.6074902550535339,0.2791857548551401,0.253090489462682,2.717071193444298,0.04123877753343113,1.18160669278468,-0.6149284559988983,-0.7481019230992105,-0.07469175121478487,-2.6639824847285727,-0.15088899499855396,-0.914429589,1.0249877904375124,0.40011437284442414,-0.12928908270994813,1.2125418678710318,0.09175866285170182,-0.17407517251599022,-1.7608719775824744,-0.5711510813678204,0.7776300393708997,0.026743819457577343,0.481513687,-0.8369808687188237,-0.15977105576041387,0.43417572700616336
-0.1851465347601687,0.30622691237281685,-1.1222049706659125,0.30240077030163653,-0.7106908761936557,-1.0350029194245038,-0.9336200063037987,-0.984191492186822,-2.2748137276509515,1.3726277462311005,-1.2628177007236558,0.24438394908523714,-0.7663819204293338,-0.304605909,0.6195598603976309,2.115974238334497,0.7237210584293369,-0.9909015810976781,-0.12973269520715747,-0.22215221708140612,0.44682687165040297,0.8265737711769868,-0.6711946072560295,-0.33816790546780795,0.549367489,-0.412750591951731,-1.5434341943848686,2.4912597370047505
-0.19722064419114382,-0.4581220560642917,1.8343075021024964,0.35352072275522045,-0.12475169135756892,-0.04594132030766774,-1.3122245316335222,-0.7917687950831469,0.03817678593271931,-1.6407696528812457,-0.9710458157570018,0.3041142986137251,0.5198971688056788,1.312692927,0.43618941690684504,-0.5787857313672876,-0.2386696505134908,-0.295528118118519,-0.20197298440431083,-0.6209671104128757,-1.1086179159366703,-0.4464805666566704,0.706428715727845,0.3942284221551542,-0.789355296,-1.5898365595664081,0.5614750340644248,-1.5815121519998538
0.8053869558335301,1.628885250935722,0.18172800455169189,-1.2684588970095385,-0.8641792070651687,-1.133057642517603,0.15570193040443975,0.436465573224039,1.466392015986007,-0.15145298421452963,0.7592430632647056,-1.5276830601144438,0.49171755427159647,-0.302624407,0.3917835974139811,0.14083730105019587,-0.24664207950423328,2.1886947359319966,1.3423338173622503,0.9082263248896955,1.9330109760094605,0.5614629522453163,-0.9753598558261192,0.5907210290442021,0.839470168,-0.3254495143324745,1.775036504674108,-1.731520595
-1.06095292568161,0.317773701816749,-0.7423260735388106,-0.9384173599246248,-0.2306669327944557,0.5304377973715376,0.2867809326052463,1.2326524058641029,1.3089819958213507,-0.16112011104580812,1.4155109195063285,-1.6673484223057524,-0.5384802204383282,-3.425130419,-0.6585139052510974,1.6671750785180666,0.610334086016642,1.4727158070740969,0.004802110073064711,0.38722230341651126,1.4249172077300734,0.29102757611113017,-1.2204842031431276,0.7184861300735786,-0.405184788,1.2175422971144398,-1.3908788667110061,0.176572835
-0.5025447860381949,0.11715476803362167,0.4948726645638243,-0.320009903,-0.17367341255864582,0.18574942385308157,0.677914939988919,0.37685208124845887,0.10370020753484631,0.4324564872830076,-0.8401318126929529,-0.07236274962107078,0.3717769902108322,-0.095166475,2.015350967262844,-1.6313855649898128,2.5040938338593,0.7383790887695563,0.5664792843178126,1.5687669883671085,-0.8138843964359633,1.0258646643820315,-0.8923368702098674,-0.8991198789422907,-1.388259331,-1.4830406259362152,0.8327703903675902,-1.486989139
-0.1332995595346352,1.0671405049824783,-0.7917967909778918,0.416555393,-1.8895550730415656,-0.7184030809196958,0.5747116269907828,-1.6739131827712317,1.8672831961947927,-1.4014057513053613,-0.7199159656097804,0.5696148017643579,0.5614494432108322,-0.761420401,0.9902449454534619,-0.6007969694821739,1.1622118769849377,0.7726912397967888,1.3693004366665813,-0.5283377402143392,-1.3147320010749501,0.4384930732474606,0.4363308217908458,0.48648788796660686,0.091587353,-0.5175056092931727,-1.4460280661432359,-0.897578143
-0.25859109740795194,-0.5604955111488902,0.6575298862401698,1.483337519,-0.8313273516713177,0.33287170831223983,-0.006019665758755097,-1.3534045694069121,0.8639127337295498,0.20431339104656357,0.7885483743085439,-1.9924214624546628,-0.014819712379810484,-0.626329136,-2.132792552682659,1.2600808367861815,0.10726050904614216,-0.40405730955729485,0.5339504936427709,-0.3613538737531562,1.664451937462071,-0.861005786,0.5134360154375635,-0.5108589867735958,0.347822258,-0.07991363731191295,-0.49291930544600415,-1.575187503
-0.6942104715038776,-1.2210327154393477,0.009732354785532476,0.817392348,1.7122589599936417,0.0027819291824100166,0.26360861664086704,-1.2585654160615152,0.567969999038865,0.008828057339494318,0.8298570464227845,1.8946809998848697,-0.08802863369652274,0.080987203,-1.1163836668182516,1.3255536374321784,-0.7049160871390149,1.2340740670964938,0.9782509211688742,-0.35364310349000294,0.7376562116395483,2.120102613,-0.6759122472049399,-1.2407671002884244,-0.412608841,0.18098481030632874,0.1746686447312426,-1.612719364
0.6603312820440614,-1.1276647683760626,2.136641825913137,2.288426377,-0.08166537117387854,0.4414604224580879,-1.0635973753485932,-0.711303557082376,-0.25087876859317804,-1.4417719173466184,0.9152044108627554,0.780470839923383,0.05122945041253143,2.10899901,0.7660286706705713,1.5352540835288147,1.2614506383346056,-0.9592415553025917,-0.8989596819412672,-1.2636032997106135,-0.517695528,2.039729658,0.5080248464721349,-0.3765030946518126,-0.841971727,-0.24230959283499456,-0.5480950253223719,0.800479656
0.7162486193063601,2.4333092854922866,-0.5002377968270434,-1.526405872,-1.341431636,0.6635492416248895,0.25471217,-0.7098334869783121,1.006008604,0.2928977190610141,1.0207900801231218,0.9901570578637825,-1.0221719466411248,-0.895688781,0.46307905226172535,0.6993864281562733,0.321368850603556,1.1161746976766629,1.0343838810990649,-0.47075208290655135,0.99554592,-1.952989701,-0.33712690660917133,-0.525712597,-1.155850997,0.5835767511898187,0.14702435633019137,0.263204845
-1.376329096,-0.42866692890504343,-0.47454965540877625,0.745563058,-1.047197161,2.009030614147097,0.399230482,-0.40204191973983033,-0.142842685,0.315218179,0.6202991783026371,-0.9340978520874683,-0.5491033525324927,-0.488945662,2.4634793308285956,0.15731826376252434,-1.280459772702629,-1.411512301902736,0.8435516701646527,0.19800423063941736,-0.546419839,0.929055397,-0.875529519,-0.22773837,-1.142917616,-0.117142012,-0.518151849,1.071011641
0.732509722,1.465657192,-1.070800446,0.069735673,0.112791706,-0.483960298,-1.96927111,-0.144509902,0.204051596,-0.691237836,-1.979467249,1.148712957,-0.745939791,2.482837004,1.080219964,0.67581625,1.03440957,1.298941057,-0.277745217,-0.752187523,0.26751886,-0.627738104,-0.798822379,0.941560263,0.267408858,-0.764862419,-1.658963234,-1.238065119
0.548851462,-0.29183661,-1.565757048,0.617462456,0.414934675,0.051187301,-0.909676973,0.794042811,0.004930439,1.053842158,-0.644827397,0.709002214,1.631192367,0.891586989,-1.390208041,1.221257121,0.698630102,-0.234142456,0.138325088,-1.441167603,1.517670828,-0.792438172,0.283924146,2.676722564,0.500123359,-1.615306643,-0.272557918,-0.33572683
-0.507023735,-0.468671845,-1.937340143,-0.413167576,1.852073158,0.847717947,1.28202076,-0.129387191,-1.351101745,-0.019216457,-0.188627955,1.045722355,0.582852731,0.249796248,-1.878749902,0.125466639,1.444476403,-1.161636492,-0.123302717,-0.14808384,1.972624878,2.094009193,0.85362133,1.271947144,-0.84763582,-0.061843215,1.366184878,0.206040618
0.220928961,-0.330119831,-0.828684772,0.577147718,-0.178839335,-0.443274635,0.057018658,-0.883228952,-0.145105791,-0.167408571,-0.122240552,-1.86241924,1.031137284,-1.24921282,0.329864648,0.431579249,0.486875569,-0.061065783,0.937809011,-0.718642216,-2.378700133,-1.787734212,1.40050497,1.577052057,-0.761877357,-1.211514935,0.195250493,1.030535868
1.02839954324238,1.9333445549539197,1.508350719,-0.703604123,0.129798286,0.9599059078699406,0.017337459995707086,1.582561215,1.072599594,0.778967901016272,-1.1514185629192082,-0.982291049,-2.305769257,0.06103902,0.5674988440017842,0.8786686920034178,-0.12257715962376371,-0.776495381,1.8787913190935634,-0.25226968428721314,-0.097082595,0.613879838,-0.464770987,0.566544976,0.502891989,0.1391600522240429,0.9558941300080733,0.74218162
-0.1764046427893854,-1.3698139481232607,0.029250985244130945,-0.198363707,1.641256721,-1.155841591686831,-0.605922548,0.7381759809149356,-1.0877455237872924,0.4984831,0.5395986508326804,-0.780573174,0.171207049,-1.053981899,-0.331769934,-0.129619455,0.8398341786051354,0.37849777,1.4511162548280274,-1.1219453308001155,-1.46270205,0.247459931,0.5747721754609187,-1.840596707,1.169891608,-1.4670776908895866,0.530441902,-0.428630635
0.7274654642154194,0.2586354539549207,1.0254468051077463,-0.794170559,-0.32274017714711084,0.4151215409962441,0.46031459043018963,-0.7548952421408445,-0.5581375584478283,2.7819431055049777,-0.37509200279827387,-1.854696155,0.063186091,-1.112113581,-0.05391206170893248,0.8174005740313902,-1.2223216917536792,0.998600567004406,2.335772510509022,0.7416790884654232,-0.17488867,0.7176221,-2.059601403903455,1.968764711019674,1.762793266,0.48494950341746385,2.098467858209754,2.370574417
1.2885526645792424,1.8110783625656157,-1.8305857617765757,-1.496670604,0.9690296782772854,-0.9035882241465946,0.9387118939723818,1.1092042710355783,1.1866425116285537,0.9022343149201425,0.13831056508578418,-0.4759604999180424,0.5955475636300939,-0.486310838,1.4842027609446116,-1.7420135473944862,0.3516367809330054,0.08849270739987575,-0.6923313685279769,1.0577378668736648,-2.413676162,-0.15794172348171626,-0.32797777514645227,0.4458829201730464,0.49348831,1.491282125903292,-0.07738167399321982,-0.619213372451625
-1.2431941234854358,1.80817269804372,-0.1685032110777262,-0.4585670331669428,0.3549466704861848,0.6635910675342078,-0.29725086238417037,0.8096623013777956,0.3446516400791719,-0.6363481904657533,-0.4130601256938398,-0.30031413474395396,-0.053354766161782884,-2.742469078,0.18062448565942787,1.5073395140899515,-1.3688398060427251,-0.7052960204174135,-0.10296210248343514,-0.9309666043568543,0.7003229744773205,-0.032320034650772704,1.4343178712374405,-0.4685605879215123,2.424834078,-0.6453700839854237,-1.6885775799011138,-0.2676828659120324
0.22474009655074417,1.821998870661227,-1.2094980366419539,-0.4674860784407354,-0.6810957394225297,0.876659464621631,-0.8426346891248297,0.5922737011081657,-0.4332292149994049,-1.1712217390866912,0.7799813587640388,2.5575336899351364,-0.7789421638719118,0.1909046192614669,-0.2108872468319553,-2.0322166951109426,0.20392717593206583,-0.48134439298218695,-0.3790731366701611,1.178573542405839,-0.059906045788597345,-0.28084473851839015,-1.109867142490967,0.8584119345624963,-0.585638463,-0.9600261144636894,0.23172182699294427,0.28467755051888965
0.4871989630914181,0.6564636370675485,0.4456644547156605,0.363265510198229,2.647934450559166,0.6136576222287733,0.10594676548103045,-1.726748628667644,1.2705003787575393,-1.0726217696032407,2.2515844684653374,0.7547773724488587,-0.41568955430293775,-1.9969530378125098,0.5547615083393486,0.26994994669756905,3.030523120761283,1.4092006361866274,-0.6356216357700851,2.1770928305476067,-0.06424160481497898,-0.7190118240245489,0.015108195713243311,1.4086673616682384,1.529765122,0.9571020742282088,0.4053354217726128,0.07474523404940625
0.061506705567666804,-0.5212000989742972,1.5927601117304755,-1.1867002747846063,-0.988384780876234,-0.46229816737518786,-0.7087843054616102,-0.7841576591006043,-0.3447507161101348,0.09337281056771499,-0.8112017713649098,0.7872550338740578,0.15595902931455452,0.5306198775668282,0.5268559059543085,-0.058361454347196626,-1.5740198234598075,1.4419467289567474,1.5716846824468147,1.9120410004107355,-0.36706754694035504,-0.0443661941299661,-0.2872176815171583,1.5318075257891979,-0.976256304,-0.9601857424173105,1.9086420991194264,1.699273323245248
1.0274710718924085,0.5836440593989021,-0.15717557954823094,-0.41332186662057385,-0.3635271635194671,1.1695010423788812,0.76219186619967,-0.07664708480763306,-2.0016414855492464,0.4742974668969016,-0.41588428178438036,-0.3026891328468505,0.14352101459317262,-0.5188661253098324,0.02569307176211322,0.9789904166192666,-0.2951261483630646,-1.9552857066062024,0.2290331322202597,-2.2082457462138527,-1.2487221143443352,-1.789695924524622,-1.1677123424366012,-1.0314251251510034,0.926983206,-0.8414445084558685,-1.165835605677333,-1.6170805317960122
0.838140320505522,1.4564182450071537,-0.09838889849353728,-0.16746916942041243,0.8619048628285912,0.807473393818353,-0.24324900842187083,0.018706584548660005,-2.220484209956702,-0.3545441530535015,-0.06663316923681824,0.13591908169272232,-0.3584567131871789,-0.29671519747772634,1.2256936553218467,-0.43432109148256365,-0.5495967952792702,-1.025660854038691,-0.33182046679373667,0.3456472113895651,0.5619201903015056,0.7094384388025748,1.4390524210822921,0.18298288653922473,-0.66526267,-0.39990341482934905,-0.24332720258541,-1.8871447324461716
1.0291516654103938,-1.40383624751078,-0.3747160764042521,0.5541350502916823,0.12047971295865863,-0.8049857377277869,0.5594366134349922,-2.1393028224468327,-0.3045214394073715,0.3268714255044823,-1.1135889775338783,-0.06911102981199518,-0.7399828841452386,-0.27915668825074946,0.594593032032789,-0.650055505116526,2.044081396956613,-0.2240882673389935,-0.12607615565110006,0.7854703355058025,0.4498548468500956,-1.0621098191804765,-0.45614453544175515,-1.1657566592683144,-0.731032237,1.8610455990793742,-0.11016035950406591,-0.7344185695834474
-2.2264864024423927,2.295223930227195,0.46217130318692423,-0.4907465303809663,0.6237058511461686,0.11557305291790575,-0.05589337594474602,0.2526639437882571,-0.9357442988378202,-0.6343744664314322,0.7489962218306673,-1.3472742615666504,-0.4766485773973423,0.07904403303171803,-0.6813180307253213,-0.28880130390093484,-0.08589953138949524,0.18837628588828784,0.7706596186274386,2.1779903013286748,-0.42829689675128896,2.880469771345592,1.3865758743076566,0.6102969053145307,0.239056068,0.9344503488512333,1.74826783272209,-1.2714313136122466
0.3385092548685409,0.8977596749833945,-0.46212301076879714,-0.09397948433778691,0.5697297271877719,-0.5704081591569786,0.46260207436927664,-2.103826947928803,-0.19935317647582695,1.5790846658961788,1.4887598542380307,-0.374917984916604,-1.304921354883659,1.3019611744803767,-1.1366850935856943,-0.30912467052922377,0.7006526848258698,-1.4302190188584054,0.37871848433191696,-1.3030380422908139,0.7919601933944994,0.8328361119586518,-1.7454536353943466,-0.6203628524369784,-0.291493807,1.5256020635558065,-0.3084426856145146,-0.7278700739314862
-0.3361512731177817,0.2961118343438997,-1.6610063991090154,1.6805743172641632,0.46400741015732566,1.6032675539196415,0.44191695098166045,1.1588655749955334,0.8876579762707629,2.4302538012170967,-0.4100381451862427,0.5118082480161963,0.24380001822774486,0.4567638886409006,1.660418147587655,0.12287937153236587,-0.05112022071665301,-0.44328064610709084,0.2339826356981564,1.06781583978657,1.478775177094997,0.9362534109597196,-1.5592149789521947,0.2099733955861405,-1.241968,0.32171307038416674,0.8065851410557808,0.7553161755277241
1.307984775030363,1.809904051878431,-0.08134376143181898,0.327922566902484,-0.0255459675237097,0.19061395041987336,-0.31374384965880936,1.1666033175622856,-1.1186407011996415,1.2040660746184828,2.089137137770591,0.6660854968985953,0.798857908850313,-1.9868059775799762,0.5664316453611228,-0.744042576509056,0.6537638206941734,-1.3700681974445783,-0.8024365323165253,-1.1042183102968783,-0.9913014926137699,0.4947620620931542,-1.8471626972853727,-0.6352589080791524,-1.227654418,-0.6783853257192628,0.30056369159165797,-0.20052618947003395
2.3314175061346853,-1.3356835705859602,0.7858134460028781,0.44151240276470477,1.3776356566724266,1.0847513930353474,0.9436867855993869,0.1357884707733648,1.1205259413161652,1.747049646181262,0.4938121222629114,-0.7201202350963923,1.792377800711314,-0.8346698301302554,-0.41767178317215725,1.122246511925817,-1.9444852048224683,-0.10430941707647963,0.9523010823974882,-0.97951854048138,-0.5129688408711476,-2.204822184729219,-0.3017246528094696,-0.37969681984408565,-1.20811697,0.3758590012240126,2.919827799634908,-0.9450908494427682
-0.7927615540759161,-0.1988711597256195,0.8469722910455324,-0.27330885731026183,0.8827831281448254,-0.327609862189982,0.31269033901978494,-0.4810698976802399,-0.35532272826621497,0.34077949391700463,-1.4204195892368863,1.4830199895348413,-1.4463066047660993,-0.3003997435662732,-1.3688340434588033,-1.5005184133684715,2.443117924465482,0.8769352924327106,2.0449450249812453,0.6475751184952201,0.8604388480393081,0.4956887741884673,0.24991207454105463,0.4833679001867393,0.691890224,0.7468146427772848,-1.077804953267713,-0.5824554952063751
0.994020125236259,0.15505402776230406,1.4291408970669823,1.070715565949451,-0.2842948466807337,-1.1349881883070296,-1.8804534827071469,0.9370603484014391,0.5687813332822781,0.597452940940582,1.4533884392435068,-0.057926141120296676,0.7553695164194832,-0.7106820177101414,1.2975655901594467,1.8413709411383214,0.30537714703270236,-0.3824336860666083,-0.7486810867729756,0.22639922292839978,-1.4997254208613988,-1.5999928438183364,-0.03953240650429186,0.1467899082634807,-0.158705484,-1.3038960963500332,-0.1562606811252205,0.08918042899249545
-1.3286088292630565,2.0589047258091586,1.1619871297013098,0.53746416613817,0.9630711674105654,0.09400036771504171,-0.2121108614362639,0.2710396798364482,0.8709646093150337,1.0613509342612861,-0.2951465498879789,-2.3227863346644506,-1.175411298951567,0.26043867793438963,-0.17246935851596656,1.5187999438921298,-1.6873452322812639,-0.11098170426583817,0.748718759907279,0.0007305935181414981,-0.28092969695770836,0.34809585641907703,-0.6431071962968223,0.4162592699442233,0.596129067,0.40514255415025857,-1.625349785187117,-0.388977489
-0.8240617779886987,-0.9880325893125953,2.1272413657143345,-1.006933662935412,-0.500173912408912,0.31851515569489497,0.24919200515415255,-1.0372386107804357,0.8687456897117805,-1.0354666485804909,2.2022481126002966,0.3991045615518469,1.6075902785179232,0.07475404605730308,-1.6811973659779709,0.18792256631006654,1.0426018046458325,0.6949960833079909,-0.3511052289548074,-1.015960639844425,0.8409390566152952,1.0240707554625559,-1.5381781621166615,0.5728574155984646,-0.124603047,0.16889816886600462,-2.090446600887072,1.231105879
-0.5579821880392526,1.3614320483175084,-0.1940585639671322,0.02848293351550689,-0.12703626121886488,0.22463358790624952,-0.8512169301189029,0.8938378718962668,-0.8166847461951016,-1.6686138219959006,0.7088002477667293,1.6976115563655707,1.232528533238983,1.5572961526064246,-0.352959896365626,-0.19370727702516982,0.39218528110001327,-1.1655152366736539,0.48855202657506086,1.854899131748673,-0.024843292786552965,-0.3376824992826029,-0.223025557300443,0.24513216776655886,0.527048694,1.1326340480523318,-0.10522117157861512,2.463484476
0.7930577856700975,0.2725366961392792,-0.4669703122696846,-0.47468995122688573,0.43000254630439566,1.4874544743415443,-0.2733226149414188,0.18283092462816958,0.39017237655654713,-0.49857241037090844,-0.5928704684456739,1.2667045954819127,-1.0327874165024897,-2.033203841343583,-2.532574354304702,0.11471008088785409,-1.332430335633237,-0.9502964675223006,0.7715941217083198,0.10044971184522712,-0.3591941821877714,0.05971685685914242,-1.583084621670404,0.19072270628324675,-0.115803661,0.26660652469580165,0.9684979791561635,-0.748617721
-0.4089368756198911,1.272427812920034,0.22110627897266313,1.717049076,1.3407380016801465,0.61062422806916,-0.6593020763801546,0.18787967629408572,0.011186290477173535,1.3788255911572103,0.47220193387957476,-1.8689963919534942,0.01546020107119324,0.3496268079514832,0.8674855439870113,0.3871765984322436,0.9863317198786345,-0.3868625448289919,-0.9974532468664744,-0.8099756064150118,-0.5846066276732306,0.198145872,-0.9812269190023629,-1.5830361811661378,-0.719198704,-0.12274048493283514,-0.5511102469047511,0.985841152
1.0118830033667474,-1.3716021587019604,-1.09816737386588,-0.901866326,-1.237678613030977,0.7184551443577202,0.8484474147829494,1.182980492081254,0.5030803241794685,0.05993765388853281,-0.22098383164956942,-0.45830799628984925,0.5272356451798256,-0.177338768,1.060017482737856,-0.32366151889562,0.1511402380710266,1.2998933331548865,0.08067928041802869,-0.5293518757053557,-0.6442835828890706,-0.34100885,-1.205902522912012,-1.097366737,1.359360558,-1.3275905868598479,-0.5169526427596125,0.803924275
0.919704852,1.4264549267595081,-0.6141877561608003,-1.072819566,-0.427049419,-1.777679219022671,0.6306029166020738,0.23900469918592404,-0.505984803,1.881126963,1.0828642229512755,0.858148981136293,-0.569604583,-0.468444109,1.6327038267337057,0.8387184557256473,-0.717313666786385,1.5069046670047852,-1.265346088,-0.8964740266985793,-0.188860602,-0.329256236,-0.24295041881939733,-0.258801769,1.708207534,-0.817720971,-1.558501346,-0.392662782
-0.748700338,-1.144981259,-0.584071017,-1.248074285,-0.860052425,-0.007202914,0.674823589,-0.774987146,-0.717203048,0.695417119,-0.842836171,0.275494527,0.630687454,1.195868363,2.351655311,-1.018629967,-0.941455782,-0.213998109,-1.655248621,-0.739491363,-0.717241674,-0.429483743,0.832987048,1.106642581,-0.598799305,0.370423184,1.39352531,1.557423845
0.515873226,-1.566618042,0.15133096,-0.126748126,-1.203010847,0.18700513,2.544897653,-1.135694833,-1.562812322,-0.664186,0.747205652,-0.558390079,1.241110929,-1.528024183,-0.114459746,-0.455554059,0.700860475,0.377538116,0.981742137,0.520334026,-3.197825713,-0.189477919,0.095655003,1.383688998,1.165543878,-1.909342117,0.195229103,1.170500553
1.270046976,0.106473046,-0.386875951,-0.217888044,1.6622561260565962,-1.458072974779715,-0.49472087888904087,2.213100586231835,-0.955962589,-1.1827101347100304,-0.416718595062344,-1.587303823,-0.165422704,1.982146166,-1.038948523872082,-0.5831684218650082,0.608727856,1.883916251,-1.34572861,-2.353200479127087,-0.275278819,0.001839505,0.696177611,-0.6453223066319363,0.234115596,0.180640421,-0.3779617648557821,0.400244112
-0.31336424701090954,0.30884787518337103,0.279744603,-0.908223286,0.507708347,-0.09531622390154244,2.0640233126407286,-1.098142567,-0.795130291,0.7876665870621296,-0.905365667,1.099492467,-0.721124969,-0.335183946,-0.07390787764426597,1.5489730241685786,-0.6038698429565352,-0.54549885,0.4870011690256136,-0.6448934738558841,1.117356109,-0.688441769,0.01790974,-0.43185253890262976,-3.597370393,-0.436848237,1.182936386163496,-0.562300663
0.6761009179610152,1.0272471740872038,-0.10164968171394625,-0.597977142,-0.7821955998859605,-1.586868082692581,-1.6253942100003531,0.8022057082060944,0.08097977353788231,0.6573074867997188,-0.8310082359373892,-0.172149956,-1.084763917,-0.647849921,-1.0303987235118437,0.09276525713177718,-0.03194733286663215,-1.5638775842496868,-0.6311629898944664,-1.157093760145307,0.287149192,0.644237086,-0.07287449013690292,0.9871601299575923,0.177420702,1.911467503003024,-0.10974112913489942,0.694318682
-1.0987400494713957,-0.6676031458542752,0.1542346908654215,0.31872414324537474,0.31229647030949886,-1.8439815694871038,-0.3758122746031388,0.3701811273827255,0.22784111223411788,1.1339115219696527,-1.5715245402206113,-0.22106990532280038,-1.0997148974868356,0.82511707,0.82753860205463,-0.19350201919170248,-0.7085625238623207,-0.12380695668261486,0.8406642389872884,0.966701318617286,0.384860521,-1.3465337243808173,0.4839215498572637,-0.12994420943654098,-1.703401307,0.25180945494889495,-1.1092856541725669,-0.7573904274296388
-0.12863101170382008,-1.9438705415426818,-0.4479215396792476,-0.841184904,0.4280548071695308,-0.016324441213390967,-1.1781279402930658,0.21559097308851344,1.4795156393724418,-0.9350327563991672,-0.812819422554881,0.49804182364042504,-0.4012038120828376,-0.786152883,-1.140863169660176,1.5464293693076883,1.8363539862004543,0.07957498376989848,-0.22545094810992863,-0.5194015433261544,-1.15255668080902,1.0018305784748638,-1.0515001158179909,3.7618809875169865,-1.335479165,0.26810252527028916,-1.0414351991764894,-0.4537505595879454
1.5553811185826514,0.5392512329610964,0.0231171614988755,-1.5182737269884994,-1.047623011973367,-0.4044121199959492,1.730115613990392,0.6669637079593078,-0.4319786881619482,1.109915140139768,0.2909483738775309,-0.882479519059946,-1.2811156316438612,1.0864621995902106,1.4686279972503171,1.0628668709421771,0.5980969747879524,1.0306852117505199,1.6439029720156597,-0.2966411416621842,-1.1269832356908134,2.027583954615786,0.6460916336264144,-1.1966172323373612,-0.0011480603772501068,-0.4340639588987874,1.8612633488097703,-0.3186435407092865
0.571460804306308,0.745239723821942,-0.2341391471079564,-0.21264526248255192,0.9668010539614219,0.24037623715627618,-1.39526589338504,0.8237553805547188,-2.4178127715918083,0.6128204746321175,1.3162500077988049,-0.008144697620867744,0.7077135838066487,-0.19647228451247403,-1.263583051858755,-1.7460581823957866,-1.5924223858605902,1.4036859866961844,-0.04489731670586592,-0.8288976898167038,-0.009219453819866818,0.11769277440804224,-0.11998363854148249,-1.7426532290092918,1.7072137693765206,0.642194201285277,-0.028189028572578538,1.499520705117973
0.3532588742576466,-0.5769833453693926,-0.03168200974799332,0.7729074571749622,-1.3227928344649473,0.4239216979385368,2.195016834152558,1.2577589359196595,1.3135041448832876,-0.06192198782740339,0.2618554721642204,0.02057348546076568,-0.36873031376605153,0.682069689134166,-0.8019957774259774,-0.7420243688076812,-0.06824476448220242,-0.43271649529138106,-0.5432940238728238,-1.094599858597075,-1.4079880447090045,-0.889543675208449,1.7639351888150034,-1.1640231838798092,0.20887765116381243,-0.09317893038338025,-0.5291296974552573,1.8244380189654457
-0.3389970643898976,1.9157901438148077,0.3817100916584019,0.9864529418480521,0.25710943338793824,1.208554781632926,0.684841770672089,0.9456903864502929,1.13645152519682,0.14302320387473608,-0.7890774627006439,0.2022603838983259,1.7429512436563532,-1.604040901730286,0.029887567848201572,1.7500041474100008,-0.9311536356152145,-0.43187813575678835,2.112831787048478,-1.0267114519541691,-0.6590134724033493,-1.4739494830934394,0.47761667893873233,-1.7767359945138645,-0.893824722,0.4385132037586815,0.618185237888187,-0.6163838682535239
0.3402974706822218,-1.0228991845360942,-0.821785193537866,2.021724071985695,1.2037716221239323,-0.8177905043141206,1.6787190338174316,-1.200356759469973,0.9165936826306621,1.4385774734549803,-0.10526013610403699,-2.2935452627752024,-0.946735271369628,-1.0275493404894072,0.03724416930526764,-0.17663273806007587,-0.07014549989125922,-0.9485118546296276,1.541301489270858,1.7303713018670572,-1.4885000774425088,-0.17257186120007523,0.7080697985476433,-2.604241754989371,0.434614888,1.3339335080374917,-0.7485519396880319,1.0090995890167114
-0.9660669095287004,0.22699329978062724,0.21641528697548806,0.9249504871662083,1.1169677731722452,1.7795651801037509,0.696901636990878,-0.14347242208648567,0.346590441465797,1.0187389402247427,-0.7604629346928755,0.027976750588694952,0.3294988506024436,-0.020077459826723803,0.2784225806795727,0.43200044154104805,-0.5147360773853912,0.46160611736900176,0.007399053499609825,-0.11015595575276783,-1.3824290690035952,0.45280063556899736,-0.15661546790987727,-1.5302627173305217,-1.616219253,-0.034647203174378395,1.0958507968618882,-0.818239377799013
-0.5761081963490012,0.04570461702278003,-1.2040826999515692,-0.956261987579108,0.48081946749847837,1.322259272456818,0.5123576720184457,1.2561144403379187,0.609277509287864,0.3375576222313861,-0.6433718959509387,0.23933665190919517,2.0080441146827317,0.5267910677846783,-0.6765464778795492,1.2860372212895708,-1.7727183175722168,-0.828343317852443,1.8984131012778103,0.15626268506684327,0.18496585446626942,0.6421461258667178,0.9231703932772896,-0.6823168471423968,-1.042250855,-0.4583671971531414,-1.3398563689801792,0.07721401904312394
-0.7039472334946902,0.7081241049626216,-1.7331559981790259,-0.5794795037883681,-0.0014320892242228522,-0.09322691430714826,0.5248599029777888,0.27567602962527976,1.7157486421802468,-0.007705906668385772,-0.2540976208459625,-0.2176882609269261,-1.031858902090203,0.42940962688744466,1.2359544397490487,0.35634633241388824,-1.6632039630235766,-1.4298965016678287,-0.08366543114097912,-1.12875152820856,-0.6122892183891618,0.17198286984482863,-0.5613967679109828,-2.4764228691458072,-0.267484432,0.20120807825420364,0.7298602927498957,-1.1211883361830606
-0.019932678807683613,-1.576490996734318,-0.8705945920140695,0.12866458947986514,0.4332999497964513,0.8085476463334959,-0.4920715674605972,-1.072453989776391,1.2578510792988282,-1.7271863198784445,0.4588210034807421,-1.8835624741592798,-0.46846366030698516,-0.4311513232938073,1.1747235083332423,-0.5927509946892345,0.18854491683223595,-1.7206412735215264,1.5231320439902158,-0.73311610873306,-0.7129122700163378,0.49259334275215405,-0.36960214265063274,-0.17659832989380125,0.339094762,-2.159269933168186,1.5640757915304686,-0.1537604910739126
0.6343276681862998,0.43082045061690927,-0.7566289369239656,0.1166256538679565,0.864860324862016,0.0898610861494043,0.4189066069378886,-0.1678745672125873,-0.19665489274406933,2.648528997858585,0.39367870082556256,0.5771137127603004,-0.5961785956161074,-0.25533276369548036,-0.15205394868517425,-1.6662056405974797,-0.44507750238486615,-0.7459026411804889,1.703586960005109,0.642314031462631,0.2668265513157315,1.014428098650849,0.4920086614591239,-0.42422394260771823,1.470134265923823,-0.5351526399636829,-0.7613398407371154,-1.1934348176643794
-0.4916284996387312,0.6373249058320427,0.49036084360880106,0.5212587432534442,-1.396347368102433,-0.9843513664201595,-0.7259023224917117,0.4011575762273242,1.8816550370682719,-1.4642205773794703,0.7853275638383389,-0.6120370020398809,0.6080185479547087,-0.74749895310425,0.8811881837946268,1.9504382763926675,-0.4584762713642643,-0.16321076674088394,-0.33648498972197716,-0.546439227185285,-1.2446134468712584,0.0731374783002266,-0.9465150966782966,0.4084616776104801,0.8603170328010572,0.04165623438616616,1.3678839739151276,-0.47627787374635744
0.4856446064436834,0.7683339118646351,0.7600183170098026,-1.0979254799292493,0.5029929250730767,0.21564119459520953,0.33956055063623153,0.6131382321625379,-1.0697993673557737,0.9292416652349346,0.023109159142867777,1.301130775714423,-0.5843802053931887,0.6284399162193124,-0.6950406173548352,0.46110701614051874,0.5497079932256619,-0.35202997899505994,0.9203921461614786,0.009092001595204187,2.524295837039819,-1.2728564615177587,0.12749879107572856,0.05225034999725966,0.6796138968636504,1.1659555073002363,0.5544898572209502,-1.6242975471216565
-0.5530836785722945,0.3853717887601457,-0.7818492820399475,0.15079660405824008,-0.1592288619578638,-1.53500662051337,-0.7381680121442998,1.7110291003262796,0.850983762947621,0.013065210377254171,0.09415371979355998,0.45402936058620313,0.31740795331911903,-0.20136638088903072,1.7563920782666858,1.4967298063795627,-0.5466536257672014,-0.02166150603135337,0.5434209646510307,3.0434440192746677,0.38225671720025967,0.04199599786821841,-0.8782472320574223,-0.9102888235850373,-0.23941779674527677,0.3283664554163278,-1.0288588815998394,1.2779796654925386
1.9108599302721971,0.21769926593677516,0.07720455927079357,-0.32275326170352236,-0.747817886784744,0.17186280959182693,1.7091635080138285,-0.38122448713414014,1.2254451182063688,-0.1831102865983427,-1.1961579525406978,0.8952939717171272,1.074322515327086,0.23960211588428776,0.883971070552906,0.7054902175300638,1.08786704517131,0.673277647039646,-0.2871364977197493,-0.5285447024461783,-0.7741838987663824,-1.1662144716066958,0.6076787071160312,0.31503274945396026,-0.903553948884384,1.1005713092784961,-0.1908858600437984,0.6209114397047317
1.0633317666147968,-0.3283221958506447,0.9339394239296219,1.0098565820585717,-0.40388218485617994,0.4821398333207543,-0.05507424134827505,-0.9547995619736772,-0.26229031790673923,-1.3387994169727413,-0.005560607165662549,-0.548646568154508,-1.0913489224981188,-0.7740679088144479,-0.5510934883256323,-0.13944853360743756,-0.08791943381993458,0.08379847724983103,-0.7292513132630584,0.11636586154644911,-1.0729986435495464,-0.22536739924156515,-1.5925213656589243,-0.08327981417792256,-1.170394294,2.6578692219422657,-0.8071259827577904,-1.4002358670112567
2.222929056339847,-0.8927659195190539,1.1903859370159233,-0.6635162051636636,-0.2521497874846699,-0.14719070084881833,-0.7082005208732265,-0.7314994931587048,0.18689516346487042,-0.848079000513822,-1.502089051701181,-0.7754168383105623,0.43340248413993254,-0.6380854459128614,1.6500267902116417,-0.20597613390308286,-0.851520385490427,-0.35763080515743334,-0.6771583645180248,0.17568882289477397,-1.027033980112641,-1.0419206383059094,-1.3483933438577969,0.4572624258673313,-0.148134563,-0.41476183419870616,1.6772531105017285,0.985871058
0.9069196778018294,0.027544482288613746,0.23570134430524486,-1.2242803256717285,1.5154942174031436,2.1338639566929776,-0.3092359181619647,-1.0948378369606315,-0.7251502702076685,-0.35963227608158416,-0.3496851086107694,-0.4362856198390743,0.26040665711267225,0.9095172291278965,0.005553464947742634,-0.8824995300851377,-1.2513130741681506,1.2464714653139137,0.3608751187884099,-0.03263032107771861,-1.7986209454102149,-1.1116532976646687,-0.013253319026821928,0.6418564242071219,-0.533949929,0.25898582002154863,-0.07719965067532632,0.817664251
0.337597119889856,-0.32253166760615,0.05566633341436411,0.7998439394252127,-0.4206628341760197,0.11462344000479856,-0.917701234350088,-0.04954879240986472,-0.014094015959628373,0.28442184917201285,-0.6883633686683694,-1.6264463452104692,1.6433292617038235,0.5388611722527525,2.170650582819564,0.4399700501292539,-0.12132066557697319,1.0848702358717268,0.269673726410703,0.9270848258099069,-0.15120007629977533,0.1293923651632408,-0.7918480628556521,-2.410536030422083,-0.352748523,0.6043182458238744,0.4099441026661706,0.616630449
-0.4942065186724868,-1.6672119148792925,-0.28908514851273887,-0.10980434305809521,1.1680845556555302,1.3181324269906285,-0.2236692461957787,-0.40791225848131446,0.9166735337597532,-0.31685693274939447,-0.5063771508386069,-0.5198236490139831,0.27418334011133216,-0.29142431713241845,1.2620949522820721,0.531235953910456,-0.013186749013888494,-0.6639255261607103,-1.060727257456935,0.0039763261195555205,-0.6361152172668927,0.6388770211805535,-0.25924481270308414,0.5470021915493122,-1.504015899,0.5194532192130366,-0.3853127188886368,-0.844884179
-0.07004471544121205,-1.1933985979896597,-0.7563314975286423,0.9550605606434949,-0.6939371134850392,-0.29641171816111955,-0.3028801724354006,-0.6974166969695651,-1.01314655199111,-0.39877489805394556,0.4426695088777779,0.9825851851858692,-0.49292957880957106,-0.2920921464335065,-1.3132926164493097,-2.1979543072159764,0.219830807576802,2.576269720358018,-1.0729184500650248,-0.7411706580195757,0.2598132386981228,1.2969277665407493,0.30880761646922394,-1.9288643662150453,-1.471996545,-0.7077209636347889,0.09947397660580079,0.599981647
1.4107357489968904,1.1298562295836343,-0.96802118601339,1.3839425208015943,0.18730156926965766,1.5769418486289049,-0.9474035216013615,0.43223457769979007,1.3246635642971087,1.434344317,-1.1661307791056232,0.4430509991715303,-0.733302134,-0.293581615,-0.3197622983575472,-0.7548814411152486,0.39763335018188806,0.1841482442098197,0.541676074,-1.0563224776752669,-1.3488175635119635,1.432545457,0.5746440306798453,-0.7939324211046943,-1.02461752,-0.3258834659906556,-0.4737458359437607,-0.531948432
-0.634262125,-0.8838698742321562,0.436040931,-0.5356544038487805,0.59980679,0.10278995247172101,-0.933401336,-0.898786384,-0.36721332831269854,-0.091282519,1.9416128337921084,1.513871348627221,-0.116227138,-1.232788355,0.4775769776717059,-0.9426748115936631,0.9795197850812656,0.7579330493779346,-0.213158917,0.2679212061993822,-0.978402924,-0.365428847,-0.5686335230267003,-0.07026481805200539,-1.745768731,-1.400054732,0.5278286109579416,0.679013579
-0.712291293,0.517246086,0.252449027,0.062305139,-1.02102868,-0.680398194,1.414850874,0.508443173,0.911701304,0.69861661,-1.166051761,-0.171771409,-1.275427118,0.503853534,0.643836893,1.103102886,-1.800724881,0.294293232,1.911939609,0.551493993,-1.06696527,0.258077607,0.660948584,0.289002413,-1.406339997,-0.025571183,0.876882921,0.317788221
0.025589067,-0.03712715,-1.149097868,-1.951377332,0.686932558,-0.992405241,-0.741995745,-0.410320405,1.541497403,-0.467648029,1.316480304,0.66902407,1.009567939,-1.123450152,-0.854787487,-0.364903713,1.182022404,0.40634517,1.414434306,-0.292705774,-0.453781231,-1.177852638,0.571393672,-0.989853916,-1.712802997,-1.066245457,1.982233347,-0.891436073
1.1638329863547918,1.0669865037390422,-0.37452873874677184,0.43610757454709476,-0.1945045126346158,0.5587170788608181,1.4733371521750858,0.106324139769457,0.09284389605417512,-0.512674183,0.29090875813068967,0.28676676724293565,-1.687177943,1.343814443,1.3232048818346374,0.20403078635445554,0.4321459818763902,-0.496608101,-0.2429642789493808,0.643763153818848,0.610957928,-0.507949032,-1.1735721263896728,0.831287375,-0.221501361,0.575133913,0.103454329193345,0.361823935
0.3061022831385321,0.692339340991391,-1.0173586011793119,-0.221899251166385,2.17579025764655,0.1487556040295791,-0.06211639744960724,-0.28824883936348994,1.2040935911537312,-0.730824183139945,-0.6033017719217489,-0.16887124131414238,0.636985704,-1.5074151074301594,-0.6564825494453301,-0.2768078309065795,-0.27827434100533344,0.5803994982092524,-1.7264916353254893,0.8033912383861442,1.0088886040622598,-0.25278993017686757,1.7801856149182054,-0.3763468020444869,0.680258849,-0.44724180090033905,0.18932676720238276,0.070157747
-0.6414501227495087,1.3460399034027086,1.4606382220087692,-1.422882044,0.7608767779681812,0.1928666700132234,0.3942128062273252,-0.19685207559624826,1.9953270128115324,-0.4230263499259396,-0.5260822738257148,0.4700647135510325,-1.515100597288775,-0.024292633713728768,0.23028204572703995,0.24916580475820274,1.0362611678501235,-0.9209112734933972,0.15927526995992614,-0.44085002229679776,-1.5158571906037,0.8442728438435348,0.3231085781943327,0.7405669657324572,0.127467301,1.9449716194327862,-1.1668740145961778,0.6719967548135972
0.09133547467191368,0.2623950362936699,0.7447236471613912,-0.88787261,0.29487686292226295,-0.3201555286152348,-0.9888636735711357,-1.2309241055567763,0.9399916257243914,-2.059450690786625,0.39660347586871425,0.631842858111836,1.9151008917212304,0.28074602251839,-1.4479776819472936,-0.7288402516390611,0.713827620784424,-1.0933536829511263,-0.539519132558891,1.749234856943778,-1.024242327601459,-1.3176639032368909,0.48001939095476315,1.4734832526831374,1.338365804622896,-0.32756792609063107,-0.8045387800523143,-0.20813030080174813
-0.8669417899338289,-1.8399910812943179,0.3580881171400758,0.08055628260474232,0.1874320776222322,1.0409530036891737,0.509104390577448,-0.9037753674894156,-0.9662557216711293,-1.140012418741088,0.19051776193444503,0.7198394975991714,0.7285302527437835,0.043898841849489195,-0.3382970884599837,-1.0689453160184035,0.38858768597041377,0.44722688334862315,-0.7756605728221697,-0.2798134836730864,0.6921294247187268,-0.7372944090004547,1.2353499360059739,-0.40442668292514744,1.2506275021797704,-0.023017864295391027,0.7437469828786035,-0.7125758533811003
-0.4280410986687561,-1.022672035219878,-0.8155818683133133,-0.12220640259753535,0.1567373260124303,-0.6525680774183462,1.1498691852748935,-1.7983953150223368,1.2115218966617205,0.10978783249167635,-1.4542855498944676,-0.7028684594848223,-1.2847145206195036,-1.5110584828219256,-0.33026371297043156,-0.4929592469742151,1.1409013507833397,1.2422333356728246,0.28047323918394984,-0.8153998350038112,0.20614724056337788,-1.3752925953864674,0.7634205563960311,-0.27100845492577397,2.0233215439503747,-0.8778526828871824,0.7243740907840628,0.02500398673386982
-1.5406253564366794,-0.31889192231113733,0.41923362810116693,-0.054859829763558875,-0.8074614087777182,0.5279125169481107,0.389289304917148,0.017904931346870538,-2.3590424257420697,0.36266057917214606,0.8783469340744907,1.2585710226180014,1.320333087190946,-1.5954833162975461,0.10475910040910061,0.523791158788691,0.14071789629878556,-0.3424121101060783,0.6331702519509893,1.2751759337457529,1.562054274817002,0.42232266089827974,0.29450455354114763,-0.10395852881175827,0.12152506493427076,-0.6683853618807809,-1.3299299751359563,-0.22896396327463225
-0.5843770974110489,-0.9897431220171559,0.8131198804335373,0.20846839835966738,-0.16753214479691636,-0.7792486390290911,-1.411943485997122,-0.24356305321887506,-1.165409879419907,1.027821861503812,-0.1951392491794339,0.24603458088883506,0.30536557441812295,-0.6250972729159915,-1.0900723931750376,-0.7004463819607694,-0.04743003520265068,-0.7847107815353391,0.5064607458152022,-1.3098348628336998,-2.8271671955143183,0.5947781460096806,0.05123837830028285,1.2214019282244726,-0.9154375824007079,1.4144602230863006,0.23064578361298307,0.9987310770841752
0.860779853049388,0.3144504363637412,0.33872376909403545,-1.5695007388006657,-0.6532708230229511,1.6418204022880396,-1.0361976768473367,-0.5138594375275878,0.6576734715072997,0.31208510808272144,-0.24735030145714562,-1.2298614315960057,-0.05709963195866789,-0.7720474940685359,0.5920840474242082,2.206940806673542,-0.978678144319721,-0.025894181777038377,-0.19728661849205786,-0.46310861424849914,-0.21260236448601896,-0.9961635601282216,-0.951673167182484,0.19958696412611504,-0.5599305732589465,1.9892012530979073,0.4762367121950955,1.2436637327784188
0.6801882373898019,-0.15044562285106336,0.4647128712661038,-2.3139855223411643,-0.014939148425592517,-0.10028537609089914,1.2335592458193347,0.6932696596670055,1.1271323583362578,0.2786195419807306,0.7343528725581007,-1.46814953601187,-0.24276038374913642,-1.4989530258397685,1.070383421665121,-0.5167492778596633,-0.36041186479449755,-1.9054802782994442,0.7721433070960705,-0.6150400706512164,0.12564827331281755,-1.569456775177855,0.5584966367114801,1.1590785068291833,-0.9269509382589465,-0.918203996116004,1.525979093207647,0.9418976093938631
0.6764695940945331,0.18025748544414108,0.9821504249610351,-1.055533165519146,-1.171280200117087,-1.220778577294564,-0.05332821381042546,0.0019129697535518683,0.3747916393490782,1.836596070141895,-0.6092191223274739,-0.8637852238415912,-0.9604821406445839,-0.9148448074429508,0.7411732292381991,0.5425666977903155,-0.27119060969346703,-2.1553563328277576,-1.2015742551694248,1.4612559624227828,0.2393779715616072,1.4207483953873457,0.448985417194229,-1.3027846679656316,-1.3485049132589464,1.730027145896657,-1.0696440249414418,0.37660662740762996
0.05445254607416652,-0.21138523244902177,-2.1060380715657243,-0.5276738372682132,0.8765965560208634,-0.2848794268409208,-0.1161701654531331,0.747019552182493,-1.8709423022373834,-0.14559817566325833,-0.6238813047565326,-1.0561510178264566,0.10035502082905964,0.5256918314886757,-0.6533179277617874,0.30158098588110316,-0.7192991355883754,0.34077721553469187,0.16589528527757783,-0.8576628432907677,-1.9775982122405344,0.4223594894911432,1.2765744815547482,-0.8219620281009092,0.8811876167410535,-2.171995041901547,-1.1465682513559559,0.03103178204859401
-1.1157763391408713,0.24122682080829358,-1.9908921863392364,-1.3354195499855699,-0.1591484276689728,-0.6519272214403656,1.8081595271651512,-0.4928482811003796,0.9106102480750915,-0.652963198246541,1.3113185339044229,-1.5594295394090585,-1.3092589077850123,0.6724422675214566,0.1500041171121707,-0.05752707069590159,0.083020349575571,-1.435839889281153,0.1162120396038554,0.9212657910474599,-0.15830841178936814,0.013738437606614752,1.315030436001024,-1.4719354315691038,-1.0200565475896946,-0.022018261506795415,1.743059989545231,-1.178089685643499
1.8490990823883944,-1.7401234166889807,-0.06173689826158633,-0.022732169077835124,-0.14237849895220778,0.018537406940593786,1.5627824466304125,-0.5580754011799415,-0.9196984611846641,0.11993249371106346,-2.602355232416968,0.9656202790934966,-0.793107135456926,-0.5639888937206433,1.123760846467169,1.4060953336082584,0.3360759504455596,1.6877242905327976,-0.4314586229937111,-1.8683358945797708,-0.9504490632620852,0.426640500166071,0.7275702419923882,-1.2781886730418721,1.2585200869684083,1.8107260391638846,0.5305990075557541,1.3565946650388905
0.27957217773378107,2.173714580080028,-0.3307777840181003,-1.3818632347492668,0.6733960517584094,0.6522740837231088,0.2608844268386872,-1.3705595935767467,-0.7659119342795357,-0.45820649121418167,0.7492442720503302,-0.527240030716162,-1.5722720965784662,-0.6458285138532565,0.8569993245865631,-0.2860764084106173,-0.576437085444614,-0.393094620224757,-0.0463439061437122,0.7345406116363334,-1.1119440739012239,-0.0562772078829986,-0.05568187555819453,0.3739163549041261,-0.021242690921415706,1.2766366674945768,1.600636247911981,-0.4134219218573361
-0.25179623372417237,-0.3267954698391311,1.6359027172150133,0.026030296868905976,0.5241404063171871,-0.12829649331663054,0.2465846125416096,-1.575010809863907,-0.03391413050940054,0.08738946858920434,0.2125500215554283,0.09499434586377166,-0.20074504269712168,-1.841748338175502,0.1978616462387944,-0.24001422400487982,0.36632336907838603,0.6526830772788144,0.13926438491187154,0.5868042301890067,-1.7022787905856647,0.5329196251900271,-0.8426366839188585,-0.1840720412432807,-0.6516899175648055,0.630300626385776,1.0949748541998188,-1.0040423539432
0.8788975456632422,-0.28778463568754004,-0.09073740006220568,-0.5275450750621026,-0.10334124887988579,0.0010817462348616169,-0.4984915452123653,-1.1770299522951768,-0.14189500640247646,-0.43020511425473934,0.5834632780450766,0.7198565250466816,-0.8691548765483165,-1.5881175277855883,1.0896252612007362,0.3862958208316636,-0.40113430781446235,-0.381166530032167,-0.851643808729768,0.4455446046092883,0.7645373103502591,0.20076250660582437,-0.07826912464248156,-0.9323311652945241,-0.6184446900739458,-0.39001100285121826,0.04585264359673276,-0.7126197203449565
0.7881841253750014,1.101687363259234,0.29835109778043317,0.22717596983957808,1.721525719069241,0.887644625080026,0.26957871788990173,-0.5069920736881478,-0.42470002952049873,0.059049772352526744,0.8649452420100907,-0.14495077666877487,0.22260098952060806,0.08878172887953044,0.43309501501559106,1.8552024955707533,0.16981767049398805,-0.6410059648501816,0.9231244136914709,1.0184078091418607,-0.48941652978005246,1.09283519552542,-0.6918647942367246,0.6159307005160934,-0.5167877685942476,0.5505512263535239,1.0249832784266255,1.2050227910800009
0.2974330347149196,-0.6070212193473917,0.5710283503875758,-1.0253984782558918,-1.8521654390631979,-0.394287413677811,-0.31345946531385843,1.2855117996911243,1.363747998959134,-0.31004028875928025,0.2163466159897783,-1.0635537169829659,0.4757540115620916,-1.4170268394542227,0.11538039839840047,2.055426460505565,0.6112662898067984,-0.625511414095624,-0.00544718681029621,0.49586665307636485,0.3874570999687454,1.1847618567107154,0.2823769716185389,-0.7108282642990167,0.6195965448979439,-0.5148675840707975,-0.11216706535438974,0.1078397328874318
-1.5531371266322034,1.1561096710355034,1.50393820705469,1.5365111193202117,-0.12049274379783703,2.0047412006193004,0.14336060866825345,0.7626391339564031,-1.1207339474354716,-1.427987147585478,-0.4715640388043198,0.8159727271436965,0.3686056314844259,0.9846965485412735,0.4097963942812604,0.5186996221878741,0.8084186218395537,0.5212179361764268,-1.0669823541561547,-0.11633207511768674,1.0105473453639648,-0.15384757019563103,-0.12742794669986907,0.09630218819694748,0.32551205913910713,-0.6879633227644325,0.3716293555438938,-0.20794537
-0.1514476536607102,0.5046832858376673,-0.04880089509581381,1.8688263389007722,0.15350469008298748,-1.8459872875870627,-2.3770403340003243,0.3110029207090881,1.143463382886075,0.5728522301289439,-1.4701369130152386,0.8017449898478048,-2.7042012862644262,1.8641676443994388,0.37496813281313207,1.5029053022077274,1.9970042422640146,0.49171395409265667,-0.17883466676292553,0.1774378018615055,2.39743085804364,-0.9844133521967994,-1.11682963115803,1.2604212635994785,0.015079858,0.3068128303284063,0.2474734703870529,1.909835059
-1.6816356824095708,-0.40662508423931665,0.17856996542328968,-1.5765644551344589,0.9853473609536701,1.2697687439717393,-0.3476087504400695,1.3409263007505372,0.5297994845891578,-1.1417914353606795,-0.4567122185392414,2.147609025078597,-0.35659093413986626,-0.4352939806156118,0.4643787119545836,1.1021657616826475,-1.3427363484074877,-0.7288695445613959,0.34752383316418295,1.2751374004580533,0.5371439516133786,-0.9651107499760355,0.733657022363613,-2.093038088519563,-1.111990191,0.7422233629938791,-1.2068822048325392,0.04775413
-0.479694532609715,0.32301667797680245,-1.6641355697923899,-0.6021294483964758,1.444701729267477,0.6639951644138904,-2.068545896069675,-0.10645898619753467,-0.25775742186102285,-0.4338624116724291,0.11582777900873159,-1.055125484056063,0.4963566956217009,-2.092322568539269,-0.5782664477229232,-1.3637301081940896,1.9934570794279922,0.590343092666949,-0.09971837517309805,0.6590544734381574,-0.3608016429772289,0.6799526303852924,0.40394383612282636,-0.0922792047030639,0.185496224,0.19781505557123658,-0.10639880542169038,0.724461158
-0.7206802520960446,0.08478086023422282,0.9017129681616487,-0.048438508723449625,3.0654135432471548,1.0707962598544072,-1.231882267845511,-0.5664899830403287,0.8296426903887864,0.4598648814058385,-0.6137060614081952,0.39649861372977635,-0.5839580341630507,0.94788358348299,-0.22390933534717816,-0.44570798551491575,0.5182306006773783,-2.1422109157540605,0.33920812981409465,-0.36048562776966664,-0.09027671760384938,-0.335638802592853,-0.5886074085668397,1.6492678939922667,-0.617165671,0.43683542785212665,-0.696002389986892,-0.461127405
0.9054726022730328,-1.0764327703414491,0.38888649268565073,-0.8255617806450476,1.7042079071882978,0.4453721581527905,0.6463258182331268,0.184811899957757,0.5823638092532096,-0.5561766478876253,1.4046038277369906,0.8089207826065095,-0.631791517,-0.239467182,1.79741270387364,0.39232527167549547,1.7172471413428325,0.26459531566250033,0.35595674519387305,0.1690028032160107,-0.30705270846848887,0.9505948544958701,-1.6551798636621549,0.4004595029164885,2.122428048,-1.1712836129566213,-0.07186897995758187,0.747405726
-0.7320063373953026,0.8885515466889372,0.5896888658073048,0.07748944127084777,0.4821729602481942,-0.06319004949165108,0.26614258075030883,-1.179278252858357,0.5027571618775598,-1.132468753,1.1878983908685803,0.13990527535753544,-0.304689383,0.738277523,1.933552188132331,-0.8777454864001693,-0.4970081611593074,0.6027478251151864,-1.134011014,0.24692322673030923,-1.098454273,1.8798921166076867,0.45302786370475373,-0.9838255214891344,0.08250082,0.09794689493247165,-0.4312176317884191,0.023228714
0.847177739,1.34410197,0.955766824,-2.36110657,-0.073660192,-0.189579013,-1.064131072,2.12399928,0.11916155,1.254127452,-0.613436372,-0.279883554,0.853354723,1.054263864,0.038165347,-0.422727628,0.460855219,-0.003225446,0.112769477,-0.879359969,1.120066231,1.326795222,1.060235975,0.037317669,0.12006401,0.285118004,-1.919856471,-0.308664916
0.529171786,1.0975532550037563,1.720899337,-0.069760013,-0.9323645189894593,-0.30121714195680055,0.07881816002160735,1.868547858,0.7692273620093855,-0.793099283,-0.06972360601246497,1.820562237,0.728410489,0.107661018,0.12468914002442011,0.437691502,-1.205882882,1.560528948,1.68839473,-0.8201318990243042,-1.571100915,1.458524533,-0.29111214699914734,-0.4548606619278474,0.300922833,-2.148629256,1.6274902810285825,0.148644503
-0.6591928778694207,0.5742675795706818,0.7518245739999614,-0.5759818793632262,0.4359082798834011,0.7196160512744172,1.6733521116669192,-0.45242664905072594,-1.9073859037327594,-1.5810472354735998,0.9117278982406559,-0.35066265271586394,0.419683494,1.3254682493483287,0.980602652391006,-1.3619629873255357,0.5037706437767762,-3.4464389082788482,-0.9232352131546346,-1.2252623597129932,-0.08772578452674416,-0.28682592,-1.3948030586381526,-0.30167264517366627,-0.414573661,0.864292992689588,0.13316090978934997,0.454996371
-1.1110698694397647,0.6615702710184469,1.1423839792592942,-1.3151448316507557,-0.7780583431239508,-1.7429247579464409,-0.38483450047896334,0.4628783451237231,0.41873532486949194,0.3998447894869691,-0.16389777953008883,-0.7523024626490828,-0.32076123869080336,1.4841411448278263,0.9825604077834629,0.6938314244994456,0.14241906503468288,0.3367285700848809,-0.5883268957330505,-0.21947863221813138,0.028021071142316237,0.7457686569908248,0.21671117597385545,0.11188407143423726,0.33767919,-1.1540917883272914,0.5205989882672949,-0.167090474
-0.16531612881926308,0.19970713644452495,-1.311341634608502,1.721852764690819,-0.5580469920357481,0.9156765276210745,1.3515971996820686,-0.0025918057048517447,-0.9236343154661396,-0.6535369221770652,1.2542469527579916,-0.043369892037830635,-0.46283553574015124,-1.1764569996755045,0.5052219552729441,-0.9804881379376107,-0.36840756393625146,0.6466747505143253,0.004161721512024684,0.8766566139936358,-0.18282288962290463,-0.27138530711574166,-0.5163143383187881,0.904272943125391,1.689587854,1.8049442383490224,-1.2050020718692926,-0.685547273
-0.1057090942770276,0.2423984343069454,1.9729913955197798,0.07824820237595767,0.9691826477132406,1.0920588345926177,2.1977046937316227,-0.7201974028845597,0.8539414340137346,-1.772993123138638,-0.2705812750894244,1.8255875494977436,-2.4424133306139364,-0.9150132424959873,0.6038733432590324,-1.0478428887622955,-1.8831284719867005,0.13509783467363412,0.8073937670388779,-0.3293274357767721,-0.673586523691907,0.6583086312219862,-1.7286544345096264,0.13661899914016268,-0.30751692057414604,-0.9676272413991605,-0.31073121540416077,-0.7067972581079524
1.059165311685854,0.801282314720561,1.74571829182768,0.8557347130620873,-0.49629471348501186,1.476803616452066,0.5574617406157641,1.6585647048096057,-0.40575845716195524,-0.2162090532458967,-2.015495675604006,0.7001488404670901,0.2836422162040314,-1.8010669183465493,-0.1597596933457521,-1.7175304356219199,-0.7218295140364316,1.976747215590292,1.2493750144112434,-0.6368805045174527,0.7316478599866357,0.4669453075105008,1.324067212877175,0.9834828237002201,-0.8910863898694169,2.5821197667340337,-0.7851761867428848,0.524559306740801
-0.6611328654580255,-2.4267174621456484,-0.25962644811301056,-0.34565175450498914,0.34237894639597255,0.7106616753076191,-1.285834270087531,0.8183721924529846,-0.7632735317165531,-0.9889626100783904,-1.1275128851730372,-0.7171208219301152,1.5951877628813813,-0.3162734059089017,-1.3603579114319213,-0.4308904662381133,0.37101551848114284,-0.4356744756366643,0.17745154581456263,-1.667363286160821,-0.1434058526313308,0.7258637823819333,-1.0394101624033814,0.24230317933392645,-1.6471706134426876,0.813681836801207,1.6430580229154328,0.49604341853599493
-0.1527220080062928,-1.2959118372381169,-1.0391103907311092,-1.8941111434278406,1.7003654371637493,0.46973114604005,0.9474210729411714,-0.617333621377379,-0.6794996958935537,-1.3482077239926038,-1.9471122775791962,1.8152712270686149,-1.158102371520313,-0.8861904512100216,1.0957069858100223,-0.909139223236656,1.1072843988478405,0.9488915248763136,-0.9678085269210313,-2.3851386820404645,-0.37736503502665064,0.015915439491217237,0.1596102539936724,-0.47759204641048963,-0.0014083458285871955,-0.39972372611762785,0.9596886470223568,1.6743029081417915
-0.7323107256855624,-1.2917872633809397,-1.9943855904829497,-1.4136809220639681,-0.825790205878586,0.6345737960795965,0.39272635416122,0.25039941843639973,0.9010182490633958,0.8480344517951455,-0.04324009381069614,0.41839332510659166,0.5723585932526678,-1.897580058351404,-0.2264056605438379,-0.5576378583889455,0.4424272511131995,-2.090084990557203,0.24297429316248825,0.5998292871209253,0.08740927340098145,0.14894103677993828,-0.500325531817248,0.31338561161596,-0.26176781066016525,-1.5974531625342818,0.9199435872286877,1.2805689023234752
0.8696701414534816,-1.0575571224653386,-2.149278155433353,0.32063807238993486,0.810824234247781,0.6216197770934468,-0.7073739648153365,0.570208296564532,0.10643980092237337,0.532466202592871,-0.35961894263612765,-1.019234793712117,-0.0003771467449625674,-0.4484349675053363,0.6901310785084066,0.8666814143149616,-0.4282147743419396,-1.4629642125521314,1.4166546142621488,0.4661970523091499,0.7862949178632557,-0.4541438165099339,1.527485158812967,0.42436007685768606,1.4279178481953636,-1.2503321719062597,-0.6759667640658118,0.19835642540971496
-0.40748492453990887,-0.9134226983701903,-0.25502368122426294,-0.8164526854270204,0.4574132500383736,-0.026960028752119117,1.10356507791925,-0.09969413051129254,-1.0581036782666267,0.826037191818113,-0.09019841692537617,0.8326130924949797,1.157331539560988,1.8448537629868205,0.2044051257461536,-1.4056058482957583,-1.0821781987202885,0.26508517706949253,-1.6571584196121127,-0.1533214267150717,1.0049776065183618,-0.13851966431436782,0.7318586821270625,-0.3815160205890173,-0.5259442152478205,2.1205428320324287,-0.4564306715153358,-0.38961598033389355
0.9972550877459214,0.39502880580243654,0.038129782738873026,0.6514425331169165,1.0743437551990775,-0.4593738389233297,0.11911118183069766,0.04310711777207125,-0.45571303344352904,0.6633650757366175,-0.22297879898756737,1.0450033634972005,-0.5762585287789934,-1.8921034566069406,-0.25051234671670214,1.1923604906333645,-1.244830582248926,-2.8869783641390168,-0.27364430867863787,-0.09464196167622069,0.8004580757819783,-0.9157423997946766,0.5369282851716227,-0.5082845206402912,-0.7950484367190228,1.2088436873210506,-1.4784675215246892,0.7575307847640066
0.3546185512623146,0.9302858204072507,-1.8434642929776548,-1.05552852656948,0.8260084159694928,0.27843446655413023,1.840893897459142,-0.42499813901448313,1.7995283608796095,1.5220779706323324,-0.03358770911751032,-1.827139515653152,-0.6719840085613674,-2.090450448716992,1.8332871109494326,-1.145857363761471,-1.864163130818938,1.0749951685489467,1.3183485871208513,1.2624462469419808,-0.7312703903435427,1.6049714766010688,0.42628118093648554,1.0300259727416192,-1.030294343861194,-2.160627048353966,-0.37085173766536217,0.052804857510045364
-0.6024866732866382,0.6394693632257124,1.4816059980178762,-0.43655491666337676,-0.0778442744793289,-0.8705525944428583,0.14973658110902485,1.3620148090868958,0.5860683149393996,0.12763089989060394,-1.1544533937460595,-1.2212862573906418,-0.42276546686223787,-0.3419612023421597,-0.17526101097217175,-0.4028573300611896,-1.2812944126995731,1.7160662693656261,-0.3527340881220147,0.6155540068141458,0.9892587638861362,-0.3204618197958547,0.3926236717540731,-0.026930135569698838,0.0023790580481472855,1.752839345716867,0.6746825659198179,-0.7320499883697649
0.7545852746532976,-0.5614153029952083,1.5961176928839753,0.5992922652466435,0.31664230441994917,0.3929390342460479,-0.17641252593655746,-0.5628024320134002,-1.9224117285262232,1.076748207959885,-0.45080477437880984,0.8119413292666752,0.21678000512684723,-0.8941163537112332,-0.18800675575185047,-0.2774867354800794,-1.728888588583581,-1.6796057501158657,0.0821904292531281,-0.09103628624831853,-1.6378365121915976,2.2851538791500126,-0.09882484666624657,0.6846826722460143,0.17498470202231026,-0.3381080971892571,-1.2767104213358047,-1.6317888733546662
-0.03745903917548246,-0.9483363246614722,0.5413751713354942,0.04372074691412039,-0.09453975388164662,0.22169043606465502,-0.10938266534284352,-1.0549620107445294,0.2980358992981348,0.9286838378847833,0.2327642485669355,-0.012939078062087035,1.6835746006975678,0.2797804258579076,-0.17263826626802523,0.8400566097872443,-0.14590084423703265,-0.38339278518725456,-0.8873905581565863,-0.3666790204922153,-3.1298838695718345,0.4587185701734369,-1.0700790916050782,0.7271087991098816,-0.03180589697334165,-0.33622376734588644,0.663821454577708,-0.40723539515719365
-0.04116661495285568,-0.7508416609926987,0.5201749423355666,0.6014724717420915,0.710411944825295,1.4223249822135837,0.3819574210994258,-0.10965729656450264,-0.6806052965145413,0.333802652181782,0.026371634353318258,0.36813736719593604,-0.3358066799544397,0.5685941485243742,0.5709717559496199,0.3034526193693114,-1.5961136055374487,0.07792488658710965,-0.4005294088435177,-0.6205131439266005,0.10333725542902024,-0.7368338086182317,0.3201652060852535,0.7977928234396982,0.1536465407947099,-0.006017802966301484,0.23757837490095585,-0.12673059619878893
-0.22372950841310135,1.0934637578938415,1.2727461667385889,-0.3062442342458761,-0.3886656099582561,-0.9290311917505168,0.1837304975052981,-0.9079542175101081,0.24909832194219603,1.2255148428940408,0.270738819070725,0.07509965076877505,0.33014344724905526,0.05329500725429432,0.2796261469909864,-0.024447615760761685,-1.96956226772306,-0.46146254322194113,-0.9687324446426899,0.8506283576792122,-0.7366535759281346,-1.024289885440837,1.1949837808953305,-0.5731465266675465,2.847833254784944,0.7035543042820889,2.057281711378204,0.668544219076999
0.4144492163258542,-1.7627027727308555,-0.3423019582703877,0.1601472487809726,-0.1505872432847367,0.37639477064169297,0.25559924675988677,-0.7416835772428505,-0.5004413153021786,1.1115766371165947,-1.6678290859306324,1.6622790968893495,-0.3105317857174247,0.19144267000419735,-0.08097973260437741,-1.6101886368059362,-0.2783483911714225,-1.098003856490499,-0.09130215969566223,-1.125443948372677,-1.138944656470728,-1.031411506241539,-1.7629564844154624,-1.3046196509980417,-0.2353826305597077,0.20939738622166462,0.6502347612000674,-0.8966964680875372
0.12156160276642583,-2.1605747513988214,0.22049210704883312,0.14770451172835006,0.38369324068674937,0.8831563648930684,-0.5790497612866702,-0.5705334903038746,-1.3682845488476802,1.906355786223998,-0.01823886513447732,-0.8549722932122249,0.33026730990693104,-1.2335594317369465,-0.10502743275550815,0.24748360722159649,-0.019495975879603264,-1.0120867851012567,-1.133646125095504,-0.735756010716193,-1.4248600502006012,0.2804149882291074,-0.46465055653650567,-0.5047827309480779,0.7643833447095,0.5919045766075117,-0.7537136642802452,-0.5994971475346852
0.22553777549561727,-0.64699624456373,0.7872078526163171,0.8454672177522038,1.4531227940713216,-2.107181650754781,-0.19505407596023924,-0.3684013409526223,-0.39766386706987483,-1.0457159741749367,0.06125890894742017,-0.13849711351689475,1.7942677060518326,-0.7031608963773558,0.571922155783798,1.0218142518860311,-1.2083109609030533,1.0527251317663149,0.3167931917155462,0.010274450299429565,-0.2238556997426443,-1.0125764444491396,0.23370178849474046,-0.20548491913198802,-0.5078576680036786,0.4387516835873399,1.1705422086701522,-0.935610485
0.7924967900762007,-1.723099081108261,-0.10580877531746055,0.551142584643108,1.0519943965791239,0.258124402239503,-1.1689615243481046,-1.046952641606366,-0.5549294587231175,1.0804068844176458,-0.9387059322745326,1.6226465110873427,0.3788783033384272,1.5023608027407886,0.19313495467808492,0.5253718349178116,-1.068793482317689,-0.4934954059258681,-0.978863021046087,0.40911830144680345,1.4121229557364718,0.4999406582714896,0.1400398989748495,0.2660424941390133,-0.505656098,0.10967990379565404,1.3774928354067655,-1.228539801
0.8810422315405091,-0.6469989080917085,0.16613032819070095,0.5348786086498167,0.16451179890104178,0.3452868197774629,0.5304287333938004,0.46458295049387877,1.6448893953479007,-0.7749642562316306,0.847987128299462,0.7588375557997581,-0.4750496338717874,0.5939814290757612,-0.40256884511538144,0.051847128144184775,0.07951017472359426,-0.5297875964186977,-1.3002318016892969,-0.1575688010909469,-0.7457652831770607,1.6924883057279172,-1.691355119638923,0.4872819702140536,-0.531199473,1.6229938989057524,-0.4140648698972912,-0.181045531
0.5994561227351274,-1.3280368408475807,-1.7588801652050827,-1.7467238645121088,-0.7177571671643823,0.08700226420336568,-0.6671282787310173,0.470862465797526,0.36109128144276875,0.7633416792242158,-0.4372206649065315,-0.7228625713967781,-0.6879147219990202,0.5693090107653445,0.18747598314451394,-1.5306981278887435,0.5400443081361558,0.8272781381461417,-1.0414078638724178,-0.2664254080356301,1.4212610832999273,1.6522240105435215,0.1613703271168214,0.1491455473434869,-0.063663526,0.9258468524511562,-1.1850526883012469,0.897602555
-1.2482515983052485,-0.7475847647342855,0.4144502784949984,-0.28981680064871973,1.0802604140013952,-0.6268922168894147,-0.7126898817373586,-1.7229566736921427,-0.7835566976984831,0.4764743753720399,-0.2917858829526931,0.764900030223426,0.19315020923535844,0.45013398145346156,-0.5671785871289418,-0.6470382204915451,-1.8296999408011636,-1.9422961230437983,-0.40466929510015764,0.4659934530412921,-0.33647414191105224,-0.6417864962612909,-0.7584068206816147,-1.074048895267872,-1.737634242,1.35222576665274,0.09792185425775911,0.750154601
-0.14627131129255228,0.15046858735449212,0.8337522549436198,0.9855745768706168,-0.4567205698461239,0.9752148579638127,0.06743738924483547,-0.7801215534884042,1.4823119853592222,-2.3027331349897864,0.27281421832868613,-1.6119769464906861,0.8738259039880798,0.793558959,0.6222991820222272,-0.4112342185438832,0.8500328045885834,0.6606086572802603,0.8468403065709966,-0.5067087885029197,1.4563649936375251,0.8688004427799745,0.7329630905175452,-1.1424022291722797,-1.829587621,1.4242503988697417,0.45169711251180017,-1.237672887
0.24095882352249223,-0.24368328531408306,1.0466243910409505,0.642403192,-0.89971944912019,0.25119726970294287,-1.665034461,-1.0837467543530468,0.34948076913054754,0.529934584,-1.0112778590224898,0.8731542499576627,-0.5266829036309616,-0.950772024,1.1251758967862278,-0.7253356850328225,1.162384814451198,-0.8511678408154267,0.2537014261809768,-1.2294616808398735,-0.2518304443843911,1.2462137757272853,-0.315337398281292,0.5260323032122871,-0.29547786,-0.5065919386066039,0.5969144819291197,1.695221494
0.6866511685717135,0.66768054,0.141968403,-0.541798632,-0.680612607,0.258895223,-0.764140046,0.1558899,0.11157067891941388,0.84381026,0.226363449,-0.581507319,-0.664217772,0.22036571302525607,0.5934884386786986,-0.08719203683259835,0.870430834,-0.907348855,-0.612561449,-0.812950234,0.046100905,-0.550865293,2.109163344269518,-0.19272467262306642,-0.332645461,-1.352802265,0.328010219,0.485801086
0.34837467826272067,-1.777543659259909,-0.3067490304976084,-0.2310789821389966,1.0843147797350476,0.9742593294868236,0.5289451526258231,-1.1532154892701842,0.8109066797157682,-0.2442203239164175,0.28266632880089476,2.054255886,-0.21006784,-0.1891974027039452,-1.2702164536408347,0.31945902161860545,-0.677943214,1.5466332320534233,-0.671721095,0.6355145434109067,-0.38328556298905436,-0.151743205,-0.042228395647170756,0.08298493007643577,-0.82753666,-0.731646376,0.5902743234666549,-1.125155778
-0.8765070618112516,-1.791947396791796,2.55794199305947,-0.27852956702402704,2.14316888436291,1.1174397932695677,-0.6493451297481971,-0.427301127,0.41588223311494915,-1.455992348,0.036040642657361795,-0.26237076335386966,-0.932543869,0.971205794483705,-0.2865978110608648,0.46194398136270964,-0.196819865,-0.29080187019304754,-1.1372729407681128,-0.028888640120456277,-0.8485422430869894,-1.322040703,1.5229173212098657,0.41513600090602304,-1.27942658,-0.2420097758228448,-2.411871628343569,0.083979034
0.4136155489244178,0.18185751321698437,-0.32278036564294177,0.10963506891959622,-0.9346720571109706,-2.73229609136574,-1.9729955868426654,-1.5692148030944817,-2.2151479326651513,-2.4976903208395123,1.5835501320298093,0.09300333561538261,-1.358228112407366,-0.6797832194203888,-0.2826847517686259,-0.9927696936371863,-1.3063072103516988,-0.7883234458112138,0.45910400050839884,-2.014908196681622,-0.36101549708243574,-0.29625660277809507,-0.47950537865842235,1.6688922723343378,1.187702575,-0.9232020753034709,1.2374781943603883,0.229479972
-0.8853336749974665,2.623737582153905,0.22297212650350795,1.7338901078466586,0.3518579070716028,0.22180596856871573,0.09183137784319013,0.4085619152356958,0.7698460911299584,-0.22654693858298675,0.08810177267899788,-1.4531169946634845,0.847586149519532,1.6722470359048647,0.6410399839142991,-1.8348804102985694,0.18981371020490562,-1.7613203191554776,-0.07762867811552142,-0.6774410492303937,-2.1283912916177687,-1.11867655553472,1.022511454520685,1.202107740950517,0.054290329,-1.4068155972448693,1.1480644070709554,0.4295947623370558
0.8629278144136907,-0.9183714794367168,0.04253017640450045,-1.5543758964790495,-1.2610205685180746,1.581616598021792,0.15056709074703675,-1.60428421408539,1.6504223381689678,0.9706461448779241,0.16077402805377083,-2.7062790935580225,1.3081418322614953,0.1824953349304302,0.11869728110804005,0.29283830443980524,0.280788579454966,-0.800667157626642,0.03447858757631384,0.633742565510687,0.25020294234128126,-1.251296238743392,-0.2404861207694956,0.9021415939037458,0.02226495826189562,-0.6220911127668457,1.2085270357904743,-2.0638679040800736
-0.6779441120972739,0.3332060435524142,0.5647466428165357,0.03805681847257814,1.2833595241025724,0.6532964705093522,-0.3071807208479698,-1.1246131723540715,1.3860791871935256,0.5383270894052424,-0.4387255586900334,-0.2765977187936618,-0.316967543204754,0.6414533978308506,-0.021430367018776226,-2.5837764050881318,-0.8983237203196603,-1.2600012055352225,-1.4329385441757247,-2.091905462573106,-0.5436860894104235,-0.022064977183400676,-0.49593893593957716,0.8952381641251054,-0.9853702776890628,-2.1512870458896196,1.9050761905378464,-0.3464648007714227
-0.6710598201807512,-0.04959200756804411,0.8222808057523582,-0.7248278345291191,0.6195918426156549,-1.0340235027772509,-0.8536074630252873,-1.2021290401117113,0.19859942278999568,-1.0620572832109338,-0.07505806558309079,-0.12596327576436722,-0.3269684532694831,0.5750157102760067,-0.13219922497164932,0.6900321611695523,0.09383690584473021,-0.41593102497114787,0.6987282555298644,0.260047849643639,-0.6446688136643577,0.37396389505280536,-0.4729996960055424,-0.20729936231896987,0.8399912688421358,-0.02162456927494325,0.7492344112378866,-0.9882240413309935
0.1139614557807255,-0.21012517537370456,-0.5393764214477245,-1.1161537023327088,1.4139609078083109,-0.5922596182420848,-0.16821916622437288,-0.31881663644039643,-1.5867642645597229,-1.063797681223122,0.7588988962969674,1.037139444545195,0.3077608760603461,0.11754665797239196,0.06124425888465132,0.6250270378277807,0.14381053163258878,-1.038646877765597,-0.4154695716957826,0.2263513125640184,0.37367089664381115,-1.2098989787597694,0.6967167768362964,0.8660243440463297,-0.7253202565581434,-0.22139528318633583,-0.521439969046476,0.023857144145669838
0.3617748083057944,1.3337098439911559,-0.5759754563547879,0.580879812384526,-0.16553810840996355,-0.5243410246566281,-0.9135727187644008,-0.6149238938370403,0.2771021510202076,-2.270674136427754,-2.148742566298081,-0.1568595528678376,0.18273727792552583,-1.2850473742384056,-0.6281077053225723,-0.7538465230026369,-0.989147399293967,-0.49758239655956865,-0.47775524919207807,-1.863514322266562,0.4142294401467469,0.1491166551358919,0.29239483797975974,0.926999572158615,-0.09592352217564933,1.2128767381535113,0.29201714637638837,0.06200591893640662
0.02309822885663161,-2.674338804525044,-1.2714974530492784,-1.0283525474367503,0.04467352371450601,0.8897988086260354,0.3181746850134351,0.1319565458076827,0.5049151017157146,-0.27215990566046316,-1.1811918306672617,0.00302343831133409,0.44322386363542754,-1.5423108731405468,-0.1214600537272502,-0.7211201581336908,0.5037929461048631,-1.6783243691608587,-0.1599265461009901,0.41679894736510575,0.4130496014911919,0.9959558408896815,-0.48339583604678227,-0.12506589230776013,0.7740511990947292,-0.34798102197869085,-0.01623630032120875,0.23236547559910015
